<?xml version="1.0"?>
<opencv_storage>
<SVM_Classfier type_id="opencv-ml-svm">
  <svm_type>C_SVC</svm_type>
  <kernel><type>RBF</type>
    <gamma>3.3750000000000002e-002</gamma></kernel>
  <C>1.2500000000000000e+001</C>
  <term_criteria><epsilon>9.9999997171806854e-010</epsilon>
    <iterations>500</iterations></term_criteria>
  <var_all>243</var_all>
  <var_count>243</var_count>
  <class_count>2</class_count>
  <class_labels type_id="opencv-matrix">
    <rows>1</rows>
    <cols>2</cols>
    <dt>i</dt>
    <data>
      -1 1</data></class_labels>
  <sv_total>410</sv_total>
  <support_vectors>
    <_>
      1.40934840e-001 1.56488553e-001 4.11764711e-001 5.75342476e-001
      2.59259254e-001 3.33333343e-001 2.98245609e-001 8.33333284e-002
      4.11764711e-001 5.18518507e-001 4.22222197e-001 2.87769772e-002
      1.48148149e-001 2.02898547e-001 4.13043469e-001 1.56862736e-001
      1.66666657e-001 1.36363626e-001 2.64150947e-001 1.30434781e-001
      3.78378391e-001 2.22222224e-001 2.42424235e-001 3.57142866e-001
      1.84615389e-001 1.76470593e-001 2.23214284e-001 2.39130437e-001
      1.53846145e-001 3.82352918e-001 3.71428579e-001 3.19999993e-001
      2.60869563e-001 2.08333328e-001 2.29629621e-001 1.36904761e-001
      2.70440251e-001 2.08633080e-001 3.79310340e-001 2.08955228e-001
      4.75000024e-001 6.79611713e-002 1.82926819e-001 2.84644216e-001
      2.73885339e-001 2.19626173e-001 2.19512179e-001 4.20289844e-001
      5.20833373e-001 1.83673456e-001 3.79999995e-001 9.37500000e-002
      2.26190478e-001 1.85303509e-001 4.03846145e-001 2.20588237e-001
      1.25000000e-001 4.24242437e-001 4.72727269e-001 2.50000000e-001
      9.57446694e-002 1.47727266e-001 1.31355941e-001 1.30281687e-001
      1.34831458e-001 2.61904776e-001 1.30434781e-001 3.19999993e-001
      5.83333313e-001 4.82758611e-001 3.63636374e-001 2.96296299e-001
      1.40000001e-001 8.90052319e-002 1.06761575e-001 1.32530108e-001
      2.28070155e-001 1.42857149e-001 2.97297299e-001 2.13836476e-001
      5.71428597e-001 4.78260875e-001 6.88888907e-001 5.72916687e-001
      2.74193525e-001 1.62711874e-001 1.47177428e-001 1.14285730e-001
      2.13114753e-001 2.32558146e-001 3.87096763e-001 1.35135129e-001
      2.30769247e-001 5.61403513e-001 5.09090960e-001 6.37681127e-001
      5.45454562e-001 2.39999995e-001 1.88596487e-001 4.04411778e-002
      7.21649528e-002 3.50877196e-001 1.74999997e-001 3.03030312e-001
      5.55555560e-002 9.09090936e-002 2.81250000e-001 3.70370358e-001
      5.63636363e-001 7.86885202e-001 2.67379671e-001 4.82142836e-001
      3.01435411e-001 2.54480302e-001 3.58024716e-001 4.80769217e-001
      3.94736826e-001 3.33333343e-001 4.73684192e-001 2.50000000e-001
      3.90243888e-001 2.64705867e-001 3.52941155e-001 3.77049178e-001
      2.53731340e-001 2.16666669e-001 1.39705881e-001 1.89542487e-001
      1.57728702e-001 3.50427359e-001 3.01369876e-001 2.77777791e-001
      4.11764711e-001 1.37931034e-001 3.57142866e-001 1.66666672e-001
      2.50000000e-001 2.81250000e-001 2.38095239e-001 2.06185564e-001
      1.04000002e-001 7.55813941e-002 9.99999940e-002 1.89189196e-001
      4.31372553e-001 1.25000000e-001 2.58064508e-001 2.50000000e-001
      1.16279073e-001 1.78571433e-001 5.00000000e-001 3.72093022e-001
      3.63636374e-001 2.61682242e-001 8.41121525e-002 8.84353742e-002
      1.66666657e-001 3.49999964e-001 3.79310340e-001 2.06896558e-001
      1.42857134e-001 8.33333358e-002 1.44927531e-001 4.61538494e-001
      3.44594598e-001 2.86407769e-001 2.26600975e-001 2.04379559e-001
      1.48514852e-001 2.57575750e-001 4.70588267e-001 5.18518507e-001
      5.92592597e-001 1.00000009e-001 4.09090906e-001 5.19999981e-001
      3.72950822e-001 2.78074861e-001 3.66533875e-001 3.43750000e-001
      3.74999970e-001 3.05555552e-001 1.72413796e-001 1.78571433e-001
      2.61904776e-001 9.09090936e-002 3.55704725e-001 1.94857910e-001
      2.80172437e-001 3.11320752e-001 2.29166657e-001 1.95652172e-001
      3.44827585e-002 1.37254909e-001 4.87179488e-001 2.36842096e-001
      4.59227443e-001 3.17604363e-001 4.03100789e-001 5.40540516e-001
      2.91666657e-001 3.33333343e-001 3.00000012e-001 3.75000000e-001
      2.96703279e-001 4.19580430e-001 5.63157916e-001 5.33333302e-001
      3.24324310e-001 3.33333313e-001 1.78571433e-001 1.72413796e-001
      3.71428579e-001 3.21917802e-001 6.16666675e-001 5.00000000e-001
      2.69230783e-001 3.42857152e-001 3.21428567e-001 1.30434781e-001
      6.66666687e-001 6.94444418e-001 4.28571403e-001 3.87096763e-001
      3.61111104e-001 3.99999991e-002 5.00000000e-001 4.54545438e-001
      3.75000000e-001 2.05882356e-001 1.78082198e-001 3.74999970e-001
      4.73684192e-001 5.80645144e-001 2.80000001e-001 3.43750000e-001
      3.07692319e-001 1.30434781e-001 3.39285731e-001 2.57142872e-001
      2.17391312e-001 3.85350287e-001 5.02656758e-001</_>
    <_>
      9.20679718e-002 1.22137405e-001 2.94117659e-001 1.78082198e-001
      2.59259254e-001 2.72727281e-001 3.50877158e-002 1.66666657e-001
      2.05882356e-001 7.40740746e-002 1.77777782e-001 5.75539544e-002
      1.29629627e-001 1.88405797e-001 3.26086938e-001 5.88235334e-002
      1.66666657e-001 3.33333343e-001 2.26415098e-001 2.31884062e-001
      2.70270288e-001 1.40096620e-001 2.12121218e-001 2.50000000e-001
      7.69230723e-002 2.35294133e-001 2.58928567e-001 2.53623217e-001
      1.84149176e-001 3.52941185e-001 3.14285725e-001 5.19999981e-001
      1.95652172e-001 1.38888896e-001 1.92592591e-001 2.73809522e-001
      1.99161425e-001 4.46043164e-001 7.58620739e-001 5.07462680e-001
      5.50000012e-001 2.71844685e-001 1.76829249e-001 2.24719122e-001
      3.97027612e-001 2.89719611e-001 1.95121944e-001 6.23188436e-001
      8.12500000e-001 5.30612230e-001 6.80000007e-001 2.03125000e-001
      1.50793657e-001 2.30031937e-001 3.36538464e-001 3.23529392e-001
      4.16666687e-001 4.84848469e-001 8.18181872e-001 4.64285702e-001
      3.19148928e-001 3.86363626e-001 2.20338985e-001 1.44366205e-001
      3.70786518e-001 4.28571403e-001 4.34782594e-001 2.00000003e-001
      2.91666657e-001 7.58620739e-001 8.63636374e-001 5.55555522e-001
      2.00000003e-001 1.78010464e-001 1.99288264e-001 2.28915676e-001
      2.80701756e-001 3.14285725e-001 5.40540516e-001 5.03144711e-002
      4.28571433e-001 3.62318844e-001 6.22222185e-001 4.16666657e-001
      3.70967746e-001 2.16949150e-001 1.83467746e-001 3.64285737e-001
      3.44262302e-001 4.41860497e-001 6.77419364e-001 5.13513505e-001
      2.30769247e-001 2.10526317e-001 1.63636371e-001 4.05797064e-001
      3.45454544e-001 2.75000006e-001 2.32456133e-001 2.16911778e-001
      4.02061880e-001 3.68421078e-001 2.50000000e-001 5.15151501e-001
      3.88888896e-001 7.57575750e-001 1.56250000e-001 1.85185194e-001
      2.54545480e-001 2.45901644e-001 1.92513376e-001 3.03571433e-001
      1.79425851e-001 2.68817216e-001 4.19753104e-001 4.61538464e-001
      6.05263174e-001 9.66666698e-001 7.36842096e-001 5.57692349e-001
      2.19512179e-001 2.94117659e-001 1.29411757e-001 2.13114753e-001
      1.64179102e-001 2.50000000e-001 9.55882370e-002 1.83006540e-001
      3.09148252e-001 2.30769232e-001 2.05479443e-001 5.27777791e-001
      2.94117659e-001 6.20689631e-001 2.50000000e-001 0. 4.37499970e-001
      2.50000000e-001 2.85714269e-001 1.54639170e-001 2.16000006e-001
      1.36627913e-001 8.18181783e-002 2.61261255e-001 1.56862751e-001
      5.93750000e-001 5.16129017e-001 3.05555552e-001 1.39534891e-001
      3.21428567e-001 3.46153855e-001 3.48837227e-001 1.96969703e-001
      2.61682242e-001 2.00934589e-001 1.04308389e-001 1.49122790e-001
      3.24999988e-001 2.06896558e-001 3.10344815e-001 4.64285702e-001
      3.05555552e-001 1.88405797e-001 3.65384638e-001 1.82432428e-001
      1.45631075e-001 9.11330059e-002 1.11922137e-001 1.23762377e-001
      2.42424235e-001 2.35294119e-001 2.59259254e-001 3.70370388e-001
      3.33333343e-001 1.81818187e-001 3.33333313e-001 2.54098356e-001
      2.35294119e-001 1.59362555e-001 1.32812500e-001 3.28125000e-001
      2.50000000e-001 4.13793117e-001 3.92857134e-001 3.80952388e-001
      2.27272734e-001 3.02013457e-001 1.98917449e-001 1.57327592e-001
      2.26415083e-001 4.37499970e-001 2.60869563e-001 4.82758611e-001
      1.96078449e-001 4.10256386e-001 7.89473653e-002 4.24892694e-001
      3.08529943e-001 5.27131796e-001 5.94594598e-001 5.83333313e-001
      4.00000036e-001 6.00000024e-001 2.08333343e-001 2.30769217e-001
      3.19347292e-001 3.10526311e-001 3.46666664e-001 4.59459454e-001
      3.03030312e-001 4.28571433e-001 3.10344815e-001 2.00000003e-001
      3.28767121e-001 4.16666687e-001 3.61111104e-001 2.69230783e-001
      1.71428576e-001 3.57142866e-001 1.73913047e-001 7.85714269e-001
      4.16666687e-001 4.99999970e-001 1.61290333e-001 2.22222224e-001
      2.00000003e-001 3.74999970e-001 4.54545438e-001 3.12500000e-001
      2.64705867e-001 1.23287678e-001 3.99999976e-001 6.31578922e-001
      5.48387110e-001 4.00000006e-001 7.81250060e-001 4.35897440e-001
      2.17391312e-001 4.28571433e-001 3.42857152e-001 3.82608682e-001
      4.20382172e-001 4.82465446e-001</_>
    <_>
      2.97450393e-001 1.87022895e-001 5.29411733e-001 3.83561641e-001
      5.18518507e-001 2.72727281e-001 4.21052635e-001 4.16666687e-001
      4.11764711e-001 2.96296299e-001 3.77777785e-001 6.47481978e-001
      6.48148179e-001 4.05797094e-001 6.08695626e-001 2.15686262e-001
      5.41666627e-001 5.15151501e-001 6.79245293e-001 4.78260905e-001
      3.37837845e-001 1.20772943e-001 3.33333313e-001 7.14285731e-001
      5.69230735e-001 4.55882341e-001 2.41071433e-001 4.20289844e-001
      2.28438243e-001 2.94117659e-001 2.85714298e-001 5.60000002e-001
      4.56521720e-001 3.47222239e-001 2.74074078e-001 1.04166672e-001
      1.59329146e-001 4.10071939e-001 3.62068951e-001 3.58208954e-001
      6.49999976e-001 5.53398013e-001 2.80487776e-001 3.14606726e-001
      1.33757964e-001 2.28971973e-001 2.92682916e-001 1.73913032e-001
      5.62500000e-001 4.69387770e-001 7.60000050e-001 3.59375000e-001
      1.70634910e-001 1.94888175e-001 1.92307696e-001 2.79411763e-001
      5.41666627e-001 3.63636374e-001 5.63636363e-001 4.82142866e-001
      4.46808517e-001 5.68181813e-001 4.66101706e-001 8.45070481e-002
      1.68539315e-001 1.90476179e-001 2.39130422e-001 5.19999981e-001
      3.75000000e-001 2.41379321e-001 4.31818157e-001 3.88888896e-001
      1.53333336e-001 4.03141379e-001 4.12811399e-001 3.01204830e-001
      3.68421048e-001 3.14285725e-001 4.32432443e-001 2.57861644e-001
      3.46938789e-001 3.47826093e-001 3.77777785e-001 1.25000015e-001
      1.45161271e-001 1.62711874e-001 1.61290318e-001 5.85714340e-001
      5.24590194e-001 2.55813956e-001 1.61290333e-001 3.78378361e-001
      2.30769247e-001 2.80701727e-001 1.09090909e-001 2.46376783e-001
      2.72727281e-001 1.05000004e-001 1.31578937e-001 1.83823526e-001
      1.54639170e-001 2.98245639e-001 2.74999976e-001 2.72727281e-001
      3.33333343e-001 3.03030312e-001 1.25000000e-001 2.22222224e-001
      2.18181819e-001 1.47540987e-001 9.62566808e-002 2.58928567e-001
      1.00478478e-001 1.29032269e-001 2.34567910e-001 2.88461536e-001
      3.15789461e-001 3.00000012e-001 1.57894731e-001 3.46153855e-001
      9.75609720e-002 2.94117659e-001 2.35294104e-001 2.29508206e-001
      2.83582091e-001 1.33333325e-001 1.43382356e-001 1.17647067e-001
      1.48264974e-001 1.96581200e-001 5.06849349e-001 4.72222239e-001
      4.41176444e-001 6.55172408e-001 5.00000000e-001 1.11111112e-001
      2.81250000e-001 1.56250000e-001 2.06349209e-001 1.13402061e-001
      1.28000006e-001 1.48255810e-001 1.69696972e-001 1.35135129e-001
      3.52941185e-001 4.68750000e-001 5.16129017e-001 5.00000000e-001
      1.62790701e-001 3.92857134e-001 3.46153855e-001 1.62790701e-001
      1.06060617e-001 1.86915889e-001 6.07476644e-002 1.17913835e-001
      2.80701756e-001 2.49999985e-001 1.72413796e-001 2.75862068e-001
      3.21428567e-001 3.88888866e-001 2.60869563e-001 2.30769232e-001
      2.56756753e-001 2.13592231e-001 1.30541876e-001 7.78588802e-002
      2.07920805e-001 2.12121204e-001 3.52941185e-001 2.59259254e-001
      2.59259254e-001 2.00000018e-001 5.45454562e-001 1.33333325e-001
      2.95081973e-001 2.32620314e-001 2.62948215e-001 1.87500015e-001
      1.40625000e-001 1.38888896e-001 2.06896558e-001 2.14285716e-001
      1.42857149e-001 1.36363640e-001 1.81208059e-001 1.88092008e-001
      1.72413796e-001 3.20754737e-001 1.87500000e-001 1.52173921e-001
      1.72413796e-001 1.76470593e-001 1.79487169e-001 2.36842096e-001
      1.88841209e-001 1.65154278e-001 1.55038759e-001 1.35135129e-001
      2.08333343e-001 3.33333351e-002 6.66666701e-002 1.66666657e-001
      1.20879114e-001 2.61072248e-001 1.89473689e-001 3.06666642e-001
      2.43243247e-001 2.12121218e-001 1.78571433e-001 2.41379306e-001
      2.28571430e-001 5.47945239e-002 3.66666645e-001 1.11111119e-001
      1.92307696e-001 1.14285715e-001 2.14285716e-001 3.47826093e-001
      2.61904746e-001 2.22222224e-001 2.50000000e-001 1.61290333e-001
      3.05555552e-001 5.19999981e-001 1.87500000e-001 2.72727281e-001
      9.37500000e-002 1.47058830e-001 1.50684938e-001 3.24999988e-001
      3.15789461e-001 4.19354826e-001 2.00000003e-001 3.12500000e-001
      2.56410271e-001 1.73913047e-001 3.03571433e-001 2.28571430e-001
      1.30434781e-001 4.74522293e-001 6.43995762e-001</_>
    <_>
      2.45042473e-001 2.29007661e-001 3.82352918e-001 5.89041114e-001
      5.92592597e-001 6.66666627e-001 5.61403513e-001 5.00000000e-001
      5.88235319e-001 4.81481463e-001 4.66666669e-001 2.51798570e-001
      7.77777851e-001 5.94202876e-001 4.78260875e-001 2.35294104e-001
      4.16666687e-001 5.90909123e-001 6.03773594e-001 4.49275374e-001
      4.32432443e-001 2.70531416e-001 2.12121218e-001 5.71428537e-001
      3.07692289e-001 5.00000000e-001 2.32142866e-001 2.89855063e-001
      3.19347322e-001 2.05882356e-001 3.42857152e-001 5.19999981e-001
      6.73913062e-001 2.63888896e-001 3.40740740e-001 1.36904761e-001
      4.86373156e-001 1.79856122e-001 1.72413781e-001 4.47761156e-002
      4.00000036e-001 3.20388347e-001 2.62195110e-001 2.73408264e-001
      2.99363077e-001 3.03738326e-001 1.95121944e-001 1.44927531e-001
      1.66666672e-001 6.12244867e-002 3.40000033e-001 1.79687500e-001
      1.23015866e-001 2.04472825e-001 3.94230753e-001 3.97058785e-001
      3.33333313e-001 2.72727281e-001 1.63636371e-001 1.07142866e-001
      5.31914830e-002 2.15909079e-001 7.20339045e-002 5.63380308e-002
      1.23595499e-001 4.52380955e-001 2.82608688e-001 2.80000001e-001
      4.58333313e-001 2.41379321e-001 1.59090921e-001 1.48148149e-001
      7.99999982e-002 1.88481674e-001 1.49466187e-001 4.81927693e-002
      3.15789491e-001 6.28571451e-001 5.40540516e-001 1.94968551e-001
      2.44897947e-001 1.44927531e-001 3.33333343e-001 1.25000015e-001
      1.20967738e-001 8.47457573e-002 1.16935484e-001 1.64285719e-001
      2.95081973e-001 3.48837227e-001 6.12903237e-001 5.40540516e-001
      5.00000000e-001 8.77193063e-002 2.18181834e-001 8.69565234e-002
      1.81818172e-001 1.05000004e-001 7.89473653e-002 3.30882333e-002
      1.85567021e-001 2.45614052e-001 2.74999976e-001 4.54545438e-001
      3.61111104e-001 3.63636374e-001 4.06250000e-001 4.81481493e-001
      2.54545480e-001 1.31147534e-001 6.95187151e-002 1.78571418e-001
      1.55502409e-001 2.04301089e-001 1.85185194e-001 2.69230783e-001
      3.94736826e-001 5.33333361e-001 4.21052635e-001 2.30769247e-001
      1.95121944e-001 3.82352918e-001 3.05882335e-001 5.08196712e-001
      2.38805965e-001 3.33333343e-001 1.43382356e-001 2.51634002e-001
      4.88958955e-001 5.38461506e-001 4.65753406e-001 6.94444478e-001
      5.88235319e-001 8.27586234e-001 5.00000000e-001 3.88888896e-001
      4.68750000e-001 3.12500000e-001 2.22222224e-001 1.64948449e-001
      1.28000006e-001 1.22093022e-001 2.12121204e-001 4.50450420e-001
      7.05882370e-001 5.93750000e-001 7.09677398e-001 3.05555552e-001
      5.34883738e-001 1.42857134e-001 3.84615421e-001 3.72093022e-001
      1.51515156e-001 1.30841121e-001 1.58878505e-001 1.74603179e-001
      3.68421048e-001 9.24999952e-001 5.86206913e-001 6.89655185e-001
      5.71428537e-001 3.61111104e-001 3.62318844e-001 3.07692319e-001
      1.55405402e-001 6.79611638e-002 1.23152696e-002 6.32603392e-002
      1.83168307e-001 3.78787875e-001 8.82352948e-001 7.40740776e-001
      7.03703701e-001 3.66666675e-001 4.54545468e-001 1.59999982e-001
      9.83606577e-002 1.06951870e-001 1.71314746e-001 1.56250000e-001
      4.06250000e-001 1. 8.62068951e-001 1. 3.80952388e-001
      1.36363640e-001 1.40939593e-001 9.74289551e-002 2.06896558e-001
      2.35849053e-001 3.95833343e-001 4.78260845e-001 8.96551669e-001
      2.74509817e-001 4.61538434e-001 5.00000000e-001 1.88841209e-001
      2.19600722e-001 2.40310073e-001 4.59459454e-001 6.24999940e-001
      3.66666675e-001 5.33333361e-001 4.58333313e-001 2.63736248e-001
      2.02797204e-001 2.05263168e-001 2.13333324e-001 3.78378361e-001
      4.54545438e-001 5.71428537e-001 7.93103456e-001 4.00000006e-001
      3.01369876e-001 2.16666669e-001 4.44444448e-001 3.46153855e-001
      4.00000006e-001 3.92857134e-001 4.34782624e-001 3.80952388e-001
      5.27777731e-001 2.50000000e-001 9.67741907e-002 3.33333313e-001
      2.00000003e-001 4.68750000e-001 3.03030312e-001 2.50000000e-001
      1.76470593e-001 2.46575341e-001 3.24999988e-001 3.15789461e-001
      1.61290333e-001 1.19999997e-001 2.81250000e-001 2.05128193e-001
      1.73913047e-001 2.14285716e-001 1.42857149e-001 1.30434781e-001
      5.79617798e-001 5.32943666e-001</_>
    <_>
      4.34135973e-001 1.90839693e-001 2.94117659e-001 9.58904177e-002
      2.96296299e-001 1.51515156e-001 4.73684222e-001 2.50000000e-001
      3.82352918e-001 3.33333343e-001 3.33333343e-001 4.31654692e-001
      3.33333343e-001 2.60869563e-001 2.17391282e-001 9.15032700e-002
      2.91666657e-001 3.03030282e-001 3.77358496e-001 3.04347843e-001
      2.97297329e-001 1.30434781e-001 2.72727281e-001 1.42857134e-001
      2.15384632e-001 2.49999985e-001 2.14285716e-001 2.75362313e-001
      1.98135197e-001 1.47058830e-001 1.71428576e-001 4.00000006e-001
      1.30434781e-001 1.52777761e-001 7.40740746e-002 1.48809522e-001
      2.66247362e-001 3.38129491e-001 3.27586204e-001 2.98507482e-001
      3.00000012e-001 2.33009711e-001 1.46341458e-001 9.73782763e-002
      1.59235671e-001 1.68224290e-001 9.75609720e-002 3.47826093e-001
      5.41666687e-001 2.04081625e-001 3.79999995e-001 2.03125000e-001
      7.93650746e-002 1.21405743e-001 1.34615377e-001 4.41176407e-002
      5.00000000e-001 2.42424235e-001 5.27272761e-001 2.85714298e-001
      2.34042540e-001 2.15909079e-001 1.61016956e-001 2.25352123e-001
      2.13483140e-001 1.42857134e-001 3.26086968e-001 4.39999968e-001
      4.58333313e-001 1.37931049e-001 4.54545438e-001 4.81481463e-001
      1.33333340e-001 1.51832446e-001 2.31316730e-001 3.37349415e-001
      2.80701756e-001 2.57142872e-001 3.24324310e-001 2.57861644e-001
      6.53061211e-001 6.08695626e-001 6.44444406e-001 5.52083313e-001
      4.67741907e-001 1.05084755e-001 1.49193540e-001 2.92857140e-001
      2.62295067e-001 1.62790701e-001 3.54838729e-001 2.70270258e-001
      1.15384623e-001 5.26315808e-001 5.81818223e-001 6.95652127e-001
      5.45454562e-001 4.14999992e-001 2.41228074e-001 1.32352948e-001
      2.16494843e-001 4.21052635e-001 2.99999982e-001 3.03030312e-001
      1.94444448e-001 1.51515156e-001 3.43750000e-001 4.81481493e-001
      6.72727287e-001 7.86885202e-001 4.11764741e-001 5.08928537e-001
      3.01435411e-001 3.26164871e-001 5.06172836e-001 2.88461536e-001
      4.47368413e-001 3.66666675e-001 4.21052635e-001 1.15384623e-001
      2.43902430e-002 1.47058830e-001 1.05882347e-001 3.93442631e-001
      2.38805965e-001 1.33333325e-001 2.94117630e-002 5.88235334e-002
      2.36593038e-001 3.07692289e-001 1.23287670e-001 1.94444448e-001
      2.94117659e-001 2.41379306e-001 2.14285716e-001 5.55555560e-002
      1.87500000e-001 3.59375000e-001 3.17460299e-001 3.40206176e-001
      8.79999995e-002 8.72093067e-002 6.06060624e-002 2.07207203e-001
      2.15686277e-001 1.56250000e-001 9.67741981e-002 3.33333313e-001
      1.39534891e-001 1.78571433e-001 4.61538494e-001 4.41860437e-001
      3.63636374e-001 1.12149529e-001 6.54205605e-002 7.93650821e-002
      2.01754376e-001 1.74999997e-001 1.37931034e-001 1.72413796e-001
      2.50000000e-001 2.22222224e-001 5.79710193e-002 5.19230783e-001
      4.59459454e-001 2.81553417e-001 2.29064047e-001 1.75182492e-001
      2.22772270e-001 3.18181813e-001 1.17647067e-001 1.11111112e-001
      3.33333343e-001 6.66666701e-002 1.81818187e-001 6.00000024e-001
      4.38524574e-001 2.43315503e-001 3.78486067e-001 4.45312530e-001
      3.28125000e-001 5.00000000e-001 1.37931034e-001 1.42857134e-001
      9.52380970e-002 3.18181813e-001 3.82550329e-001 2.35453308e-001
      2.13362068e-001 3.96226406e-001 4.37499970e-001 2.39130422e-001
      2.06896558e-001 1.56862751e-001 1.79487169e-001 1.05263159e-001
      4.97854054e-001 3.04900199e-001 4.34108526e-001 5.40540516e-001
      2.08333343e-001 2.33333349e-001 1.66666672e-001 2.08333321e-002
      3.29670310e-002 3.24009329e-001 6.36842072e-001 4.13333327e-001
      2.70270258e-001 3.33333313e-001 2.50000000e-001 6.89655170e-002
      8.57142881e-002 4.86301363e-001 5.66666663e-001 5.27777791e-001
      4.23076928e-001 3.71428579e-001 2.14285716e-001 8.69565234e-002
      5.71428537e-001 5.27777731e-001 6.07142866e-001 6.45161271e-001
      1.11111119e-001 1.19999997e-001 3.12500000e-001 5.75757563e-001
      5.93750000e-001 2.64705867e-001 2.05479458e-001 1.49999991e-001
      2.10526317e-001 2.25806460e-001 2.00000003e-001 2.18750000e-001
      1.79487169e-001 1.30434781e-001 1.60714284e-001 3.42857152e-001
      6.95652217e-002 2.10191071e-001 3.42720538e-001</_>
    <_>
      2.64872521e-001 1.83206111e-001 2.35294119e-001 2.19178095e-001
      4.44444448e-001 1.21212125e-001 2.45614037e-001 3.75000000e-001
      3.52941185e-001 2.96296299e-001 2.44444430e-001 3.45323741e-001
      1.48148149e-001 2.89855093e-001 4.56521749e-001 1.76470578e-001
      2.08333343e-001 3.18181813e-001 4.71698105e-001 3.33333373e-001
      2.97297329e-001 3.76811594e-001 2.42424235e-001 4.28571433e-001
      2.30769217e-001 2.94117659e-001 4.19642866e-001 5.14492750e-001
      3.12354296e-001 1.76470593e-001 1.71428576e-001 4.39999968e-001
      3.69565219e-001 2.91666687e-001 4.29629624e-001 3.21428567e-001
      3.54297698e-001 1.65467635e-001 3.79310340e-001 2.08955228e-001
      2.50000000e-001 2.62135923e-001 2.31707305e-001 2.84644216e-001
      4.71337587e-001 5.60747683e-001 3.41463387e-001 3.47826093e-001
      3.12500000e-001 2.65306115e-001 4.00000006e-001 2.42187485e-001
      1.15079366e-001 1.62939295e-001 5.00000000e-001 5.73529363e-001
      6.66666627e-001 5.45454562e-001 4.18181837e-001 3.21428567e-001
      2.23404244e-001 4.31818217e-001 3.43220323e-001 3.62676084e-001
      3.48314613e-001 2.14285716e-001 1.95652172e-001 6.39999986e-001
      6.66666687e-001 5.51724195e-001 6.13636315e-001 5.55555522e-001
      3.06666672e-001 1.46596849e-001 3.23843449e-001 8.67469966e-001
      2.80701756e-001 1.71428576e-001 2.16216207e-001 2.01257855e-001
      2.44897947e-001 2.75362313e-001 7.11111128e-001 3.54166657e-001
      1.69354841e-001 1.72881350e-001 1.61290318e-001 3.64285737e-001
      5.24590194e-001 1.86046511e-001 2.58064508e-001 2.70270258e-001
      4.23076928e-001 3.68421048e-001 4.36363667e-001 3.04347813e-001
      3.45454544e-001 2.30000004e-001 1.40350878e-001 1.39705881e-001
      1.54639170e-001 3.68421078e-001 4.24999982e-001 2.12121218e-001
      1.66666672e-001 2.72727281e-001 2.18750000e-001 2.59259254e-001
      3.45454574e-001 2.78688520e-001 1.33689851e-001 2.58928567e-001
      1.33971304e-001 1.93548396e-001 3.08641970e-001 2.11538464e-001
      3.68421048e-001 4.33333337e-001 3.42105240e-001 3.65384638e-001
      4.14634138e-001 2.05882356e-001 2.00000003e-001 2.62295097e-001
      2.68656701e-001 1.16666675e-001 1.02941178e-001 2.32026160e-001
      2.52365917e-001 3.24786305e-001 4.38356131e-001 5.55555582e-001
      3.23529392e-001 2.75862068e-001 3.57142866e-001 2.77777791e-001
      3.74999970e-001 4.68750000e-001 2.53968269e-001 1.85566992e-001
      9.60000008e-002 7.84883723e-002 1.36363626e-001 3.42342347e-001
      3.33333343e-001 4.68750000e-001 3.22580665e-001 2.50000000e-001
      2.55813956e-001 5.35714269e-001 2.69230783e-001 3.48837227e-001
      1.21212117e-001 1.21495329e-001 7.00934529e-002 4.98866215e-002
      9.64912176e-002 2.24999994e-001 4.13793117e-001 4.13793117e-001
      2.50000000e-001 2.77777761e-001 1.59420297e-001 4.80769217e-001
      1.89189181e-001 7.28155375e-002 4.67980318e-002 1.11922137e-001
      1.33663356e-001 1.66666657e-001 2.94117659e-001 4.44444448e-001
      4.07407403e-001 3.33333343e-001 1.36363640e-001 2.53333330e-001
      1.51639342e-001 1.49732620e-001 1.23505980e-001 1.09375000e-001
      2.18750000e-001 3.88888896e-001 3.79310340e-001 5.71428537e-001
      3.57142866e-001 1.36363640e-001 1.27516791e-001 1.06901214e-001
      1.70258626e-001 3.20754737e-001 1.87500000e-001 4.34782624e-001
      4.82758611e-001 3.72549027e-001 3.33333313e-001 2.89473683e-001
      1.24463521e-001 1.41560808e-001 3.02325577e-001 3.24324310e-001
      2.91666657e-001 3.00000012e-001 3.33333343e-001 1.25000000e-001
      6.59340620e-002 1.72494158e-001 1.52631581e-001 1.46666661e-001
      2.97297299e-001 3.03030312e-001 3.92857134e-001 1.37931034e-001
      2.00000003e-001 1.91780835e-001 3.33333343e-001 2.77777761e-001
      1.53846160e-001 2.00000003e-001 1.78571433e-001 4.34782617e-002
      4.28571463e-001 4.72222209e-001 5.71428597e-001 2.25806445e-001
      1.11111119e-001 2.00000003e-001 3.12500000e-001 5.15151501e-001
      4.68750000e-001 3.23529392e-001 2.05479458e-001 4.49999988e-001
      6.31578922e-001 5.16129017e-001 3.19999993e-001 5.00000000e-001
      4.10256386e-001 3.91304344e-001 4.46428597e-001 3.71428579e-001
      1.30434781e-001 4.10827994e-001 5.37725806e-001</_>
    <_>
      3.63314450e-001 1.33587793e-001 1.76470593e-001 2.60273963e-001
      2.96296299e-001 3.93939376e-001 3.68421048e-001 2.50000000e-001
      3.52941185e-001 6.29629672e-001 3.55555534e-001 1.36690646e-001
      2.40740746e-001 4.49275345e-001 7.82608688e-001 2.35294104e-001
      1.66666657e-001 1.96969688e-001 3.58490556e-001 4.49275374e-001
      6.08108163e-001 4.58937198e-001 1.51515156e-001 4.64285702e-001
      1.53846160e-001 4.26470608e-001 3.66071433e-001 6.52173936e-001
      4.77855474e-001 1.76470593e-001 3.42857152e-001 3.19999993e-001
      5.43478251e-001 3.75000000e-001 3.92592609e-001 2.61904746e-001
      3.60587001e-001 3.23741019e-001 3.44827592e-001 3.43283594e-001
      3.75000030e-001 2.91262120e-001 2.01219514e-001 2.80898869e-001
      2.80254781e-001 5.79439223e-001 2.43902430e-001 3.47826093e-001
      4.37500030e-001 3.67346942e-001 4.40000027e-001 1.87500000e-001
      1.74603164e-001 1.72523946e-001 3.36538464e-001 4.70588207e-001
      2.50000000e-001 3.33333313e-001 2.72727281e-001 4.10714298e-001
      2.23404244e-001 2.84090906e-001 7.62711912e-002 8.80281776e-002
      2.02247202e-001 3.80952388e-001 3.47826064e-001 2.39999995e-001
      4.16666627e-001 4.13793117e-001 4.09090877e-001 3.33333343e-001
      1.79999992e-001 1.41361266e-001 1.13879018e-001 8.43373537e-002
      2.45614022e-001 2.28571430e-001 2.70270258e-001 2.70440251e-001
      3.87755126e-001 3.62318844e-001 3.55555534e-001 3.43750000e-001
      3.54838699e-001 2.13559330e-001 1.18951619e-001 1.71428576e-001
      3.44262302e-001 3.48837227e-001 4.19354856e-001 2.97297299e-001
      4.23076928e-001 4.21052635e-001 2.90909082e-001 4.05797064e-001
      4.72727239e-001 2.30000004e-001 1.66666657e-001 1.10294111e-001
      1.95876285e-001 3.85964930e-001 3.49999994e-001 3.03030312e-001
      3.05555552e-001 3.93939376e-001 2.50000000e-001 2.96296299e-001
      2.72727251e-001 4.09836054e-001 1.60427809e-001 3.83928567e-001
      2.27272734e-001 1.97132632e-001 2.96296299e-001 4.80769217e-001
      4.73684192e-001 4.33333337e-001 3.15789461e-001 2.11538464e-001
      2.19512179e-001 2.05882356e-001 2.47058824e-001 1.96721300e-001
      1.79104462e-001 1.66666657e-001 9.92647111e-002 1.60130724e-001
      4.57413226e-001 7.35042751e-001 8.76712322e-001 8.05555582e-001
      2.64705867e-001 3.10344815e-001 3.21428567e-001 3.33333343e-001
      3.12500000e-001 2.65624970e-001 2.06349209e-001 1.23711333e-001
      1.04000002e-001 6.97674453e-002 1.03030294e-001 3.69369358e-001
      4.50980395e-001 8.43750000e-001 3.87096792e-001 2.77777761e-001
      1.86046511e-001 3.57142866e-001 4.23076928e-001 2.55813956e-001
      2.42424250e-001 1.86915889e-001 1.07476637e-001 8.84353742e-002
      1.31578952e-001 5.24999976e-001 3.10344815e-001 4.13793117e-001
      1.42857134e-001 1.38888896e-001 1.30434796e-001 4.03846145e-001
      1.75675675e-001 1.11650489e-001 6.89655170e-002 1.50851578e-001
      1.08910881e-001 2.57575750e-001 2.05882356e-001 2.96296299e-001
      5.55555522e-001 2.33333349e-001 1.36363640e-001 2.66666651e-001
      1.55737713e-001 8.02139044e-002 1.91235065e-001 2.10937515e-001
      2.34375000e-001 1.66666672e-001 1.03448279e-001 2.14285716e-001
      2.14285716e-001 1.81818187e-001 3.42281908e-001 1.25845730e-001
      1.01293109e-001 1.79245293e-001 1.45833328e-001 1.52173921e-001
      1.03448279e-001 1.76470593e-001 2.56410271e-001 2.89473683e-001
      4.12017167e-001 2.32304901e-001 3.02325577e-001 3.78378361e-001
      1.25000000e-001 1.33333340e-001 1.66666672e-001 2.70833313e-001
      3.18681300e-001 3.17016304e-001 5.10526299e-001 2.80000001e-001
      3.24324310e-001 2.42424235e-001 2.50000000e-001 3.44827592e-001
      5.71428575e-002 2.39726052e-001 3.83333325e-001 4.44444448e-001
      3.07692319e-001 3.71428579e-001 3.57142866e-001 2.17391312e-001
      2.85714298e-001 4.44444418e-001 4.64285702e-001 4.83870953e-001
      2.77777761e-001 3.59999985e-001 4.68750000e-001 3.63636374e-001
      4.37500000e-001 4.11764711e-001 1.91780820e-001 3.74999970e-001
      2.89473683e-001 2.58064508e-001 2.80000001e-001 2.50000000e-001
      2.56410271e-001 4.34782617e-002 1.25000000e-001 2.85714298e-001
      2.08695665e-001 3.18471342e-001 3.91073287e-001</_>
    <_>
      1.44475922e-001 8.77862647e-002 2.94117659e-001 3.28767121e-001
      1.11111112e-001 3.03030282e-001 1.57894745e-001 2.08333343e-001
      4.70588237e-001 5.18518507e-001 1.77777782e-001 1.72661871e-001
      3.51851881e-001 2.31884047e-001 5.86956501e-001 1.63398683e-001 1.
      4.39393908e-001 6.22641504e-001 3.91304374e-001 4.72972989e-001
      2.94685990e-001 3.93939376e-001 6.07142866e-001 7.53846169e-001
      2.49999985e-001 1.60714298e-001 2.46376827e-001 2.09790215e-001
      1.76470593e-001 3.71428579e-001 7.59999990e-001 4.56521720e-001
      4.30555522e-001 3.03703696e-001 3.30357164e-001 3.08176100e-001
      1.15107909e-001 2.75862068e-001 4.32835847e-001 6.75000012e-001
      1.94174752e-001 2.01219514e-001 1.91011235e-001 2.88747340e-001
      4.48598146e-001 1.70731694e-001 2.17391297e-001 3.33333343e-001
      6.32653058e-001 4.20000017e-001 3.35937500e-001 1.34920627e-001
      9.58466381e-002 4.61538434e-001 1.76470578e-001 1.66666657e-001
      3.63636374e-001 1.27272740e-001 2.32142881e-001 1.38297871e-001
      3.97727281e-001 2.58474559e-001 1.72535226e-001 3.14606726e-001
      5.23809552e-001 6.73913062e-001 0. 3.33333313e-001 2.75862068e-001
      2.95454532e-001 2.40740746e-001 2.73333341e-001 2.93193698e-001
      4.59074765e-001 4.81927752e-001 5.61403513e-001 4.28571433e-001
      6.21621609e-001 9.43396240e-002 2.85714298e-001 1.30434781e-001
      1.99999988e-001 9.37499925e-002 2.25806460e-001 1.72881350e-001
      2.23790318e-001 4.64285731e-001 5.73770523e-001 6.51162803e-001
      5.16129076e-001 6.48648679e-001 7.30769277e-001 2.28070170e-001
      1.27272740e-001 1.44927531e-001 2.18181804e-001 1.05000004e-001
      2.01754391e-001 3.45588237e-001 3.50515455e-001 5.61403513e-001
      3.24999988e-001 3.33333313e-001 6.11111104e-001 9.09090877e-001
      2.18750000e-001 2.96296299e-001 1.45454556e-001 1.96721315e-001
      5.88235296e-002 6.24999925e-002 2.00956941e-001 1.61290333e-001
      3.08641970e-001 4.42307711e-001 5.00000000e-001 3.00000012e-001
      4.73684192e-001 1.73076928e-001 2.92682916e-001 1.76470593e-001
      2.82352924e-001 1.63934425e-001 3.13432813e-001 3.16666663e-001
      2.27941170e-001 3.00653607e-001 3.47003132e-001 3.76068383e-001
      4.52054769e-001 6.38888896e-001 7.05882370e-001 9.65517223e-001
      8.21428537e-001 4.44444448e-001 5.31250000e-001 2.18749985e-001
      2.85714269e-001 2.06185564e-001 2.63999999e-001 2.70348847e-001
      3.03030312e-001 5.22522509e-001 6.47058845e-001 3.74999970e-001
      4.51612920e-001 5.00000000e-001 5.81395328e-001 5.71428537e-001
      3.46153855e-001 3.95348847e-001 1.51515156e-001 1.96261689e-001
      1.44859821e-001 2.51700670e-001 4.12280679e-001 5.99999964e-001
      5.17241359e-001 4.82758611e-001 6.42857134e-001 4.16666657e-001
      2.31884062e-001 4.42307711e-001 1.14864871e-001 3.39805819e-002
      1.47783244e-002 1.09489046e-001 2.62376219e-001 3.78787875e-001
      4.70588267e-001 7.40740776e-001 4.07407403e-001 6.66666701e-002
      2.27272734e-001 7.99999982e-002 2.04918012e-002 2.94117611e-002
      3.98406386e-002 1.01562507e-001 2.81250000e-001 3.05555552e-001
      4.13793117e-001 6.42857134e-001 3.57142866e-001 1.81818187e-001
      1.14093959e-001 9.33694169e-002 1.76724151e-001 9.43396240e-002
      1.45833328e-001 2.39130422e-001 1.03448279e-001 3.92156899e-001
      4.87179488e-001 3.42105240e-001 1.97424904e-001 1.83303088e-001
      3.10077518e-001 1.35135129e-001 2.08333343e-001 2.66666681e-001
      4.00000036e-001 2.70833313e-001 2.19780222e-001 2.49417245e-001
      1.47368431e-001 1.86666667e-001 2.16216207e-001 2.72727281e-001
      3.21428567e-001 4.82758611e-001 2.00000003e-001 2.60273963e-001
      1.00000009e-001 4.44444448e-001 3.07692319e-001 4.00000006e-001
      5.00000000e-001 3.04347843e-001 4.52380925e-001 2.77777791e-001
      4.64285702e-001 2.58064508e-001 1.66666672e-001 2.80000001e-001
      4.06250000e-001 3.33333313e-001 3.12500000e-001 1.47058830e-001
      4.10958901e-002 4.24999982e-001 3.15789461e-001 2.58064508e-001
      2.80000001e-001 3.75000000e-001 4.10256386e-001 1.73913047e-001
      1.78571433e-001 2.85714298e-001 2.34782606e-001 5.50955415e-001
      4.88841623e-001</_>
    <_>
      1.73512742e-001 1.56488553e-001 2.05882356e-001 3.01369876e-001
      2.59259254e-001 1.81818172e-001 2.80701727e-001 2.08333343e-001
      2.05882356e-001 2.96296299e-001 2.88888872e-001 5.03597036e-002
      2.40740746e-001 1.15942024e-001 3.26086938e-001 1.04575157e-001
      8.33333284e-002 1.96969688e-001 1.32075474e-001 8.69565308e-002
      1.75675675e-001 1.98067620e-001 1.51515156e-001 1.42857134e-001
      1.38461530e-001 2.05882356e-001 1.33928567e-001 1.73913032e-001
      2.44755253e-001 2.64705867e-001 2.57142872e-001 3.19999993e-001
      2.60869563e-001 1.66666657e-001 2.07407400e-001 1.57738104e-001
      3.03983241e-001 2.94964045e-001 4.31034476e-001 1.94029853e-001
      2.24999994e-001 2.03883499e-001 1.70731694e-001 1.64794013e-001
      2.65392780e-001 1.12149529e-001 2.19512179e-001 3.76811594e-001
      3.95833343e-001 3.06122422e-001 2.59999990e-001 1.71875000e-001
      2.26190478e-001 2.10862607e-001 1.05769224e-001 1.91176459e-001
      5.83333313e-001 3.93939376e-001 6.18181884e-001 3.92857134e-001
      1.91489354e-001 2.27272719e-001 1.82203397e-001 1.37323946e-001
      3.03370804e-001 1.42857134e-001 3.04347813e-001 3.59999985e-001
      2.91666657e-001 4.13793117e-001 5.00000000e-001 5.55555522e-001
      2.26666674e-001 1.57068059e-001 2.98932374e-001 2.65060246e-001
      1.05263151e-001 3.14285725e-001 1.62162155e-001 3.20754707e-001
      2.65306115e-001 5.36231935e-001 6.00000024e-001 5.41666627e-001
      3.46774191e-001 1.59322038e-001 1.45161286e-001 2.64285713e-001
      3.11475396e-001 3.48837227e-001 3.22580636e-001 1.89189181e-001
      2.69230783e-001 3.68421048e-001 6.36363685e-001 6.23188376e-001
      8.00000012e-001 3.24999988e-001 2.63157904e-001 9.92647111e-002
      2.47422680e-001 5.61403513e-001 3.49999994e-001 4.24242437e-001
      2.50000000e-001 9.09090936e-002 2.50000000e-001 4.07407403e-001
      8.18181813e-001 6.72131121e-001 4.70588267e-001 7.14285672e-001
      2.87081361e-001 1.03942662e-001 3.58024716e-001 4.80769217e-001
      5.52631557e-001 4.00000036e-001 1.31578952e-001 2.69230783e-001
      9.75609720e-002 8.82352963e-002 3.64705890e-001 2.78688550e-001
      3.28358203e-001 2.66666681e-001 6.61764741e-002 1.79738566e-001
      3.59621435e-001 3.24786305e-001 3.28767121e-001 1.66666672e-001
      2.05882356e-001 3.44827585e-002 1.07142858e-001 1.11111112e-001
      5.93750000e-001 2.96875000e-001 3.33333343e-001 3.19587618e-001
      1.11999996e-001 7.84883723e-002 9.09090936e-002 2.34234229e-001
      3.33333343e-001 2.18750000e-001 1.29032254e-001 1.94444448e-001
      1.16279073e-001 2.14285716e-001 3.84615421e-001 4.65116262e-001
      2.57575780e-001 3.08411211e-001 1.26168221e-001 8.39002207e-002
      1.40350878e-001 2.75000006e-001 2.41379306e-001 2.06896558e-001
      1.42857134e-001 1.94444448e-001 4.34782617e-002 4.23076928e-001
      5.40540516e-001 3.25242698e-001 2.38916263e-001 1.75182492e-001
      2.37623766e-001 4.24242407e-001 3.52941185e-001 2.22222224e-001
      1.85185194e-001 1.33333340e-001 1.36363640e-001 5.60000002e-001
      2.70491809e-001 2.43315503e-001 3.18725079e-001 3.98437500e-001
      4.21875000e-001 2.77777791e-001 4.48275834e-001 2.50000000e-001
      1.42857149e-001 1.36363640e-001 6.57718122e-001 2.61163741e-001
      1.44396558e-001 3.01886797e-001 4.79166657e-001 3.04347843e-001
      2.06896558e-001 1.17647067e-001 3.33333313e-001 2.10526317e-001
      5.96566498e-001 3.82940114e-001 4.34108526e-001 7.02702701e-001
      4.16666687e-001 3.00000012e-001 4.00000036e-001 2.50000000e-001
      8.79120827e-002 2.54079252e-001 6.94736838e-001 6.66666627e-001
      5.67567527e-001 3.63636374e-001 5.00000000e-001 1.37931034e-001
      3.42857152e-001 2.12328777e-001 7.83333302e-001 7.22222209e-001
      6.15384638e-001 2.28571430e-001 1.78571433e-001 2.17391312e-001
      3.57142866e-001 7.50000000e-001 5.35714269e-001 5.48387110e-001
      5.00000000e-001 1.59999996e-001 4.37499970e-001 6.06060624e-001
      5.31250000e-001 3.52941185e-001 1.78082198e-001 2.24999994e-001
      3.15789461e-001 3.87096792e-001 2.80000001e-001 1.56250000e-001
      2.82051265e-001 1.73913047e-001 2.85714269e-001 2.57142872e-001
      3.47826108e-002 2.19745204e-001 3.58660996e-001</_>
    <_>
      4.60339859e-002 2.29007658e-002 5.88235296e-002 1.36986315e-001
      2.96296299e-001 9.09090862e-002 2.45614037e-001 3.33333313e-001
      2.94117659e-001 1.48148149e-001 4.44444418e-001 1.72661871e-001
      4.62962955e-001 1.59420282e-001 2.82608688e-001 6.53594658e-002
      5.41666627e-001 4.99999970e-001 1.88679248e-001 2.31884062e-001
      2.97297329e-001 2.51207709e-001 2.12121218e-001 5.71428537e-001
      2.76923090e-001 3.23529392e-001 1.87500000e-001 2.82608688e-001
      3.89277399e-001 2.94117659e-001 5.42857170e-001 6.39999986e-001
      8.26086998e-001 3.75000000e-001 3.40740740e-001 3.39285702e-001
      2.99790353e-001 3.59712243e-002 3.96551728e-001 3.73134315e-001
      9.25000072e-001 4.85436887e-001 2.98780471e-001 3.85767817e-001
      4.79830176e-001 2.80373842e-001 2.43902430e-002 8.69565234e-002
      5.41666687e-001 6.12244904e-001 5.79999983e-001 2.42187485e-001
      1.26984119e-001 1.88498393e-001 4.13461536e-001 3.23529392e-001
      2.08333343e-001 1.51515156e-001 5.09090960e-001 4.64285702e-001
      3.08510602e-001 4.88636374e-001 1.86440676e-001 1.51408464e-001
      1.46067426e-001 3.57142866e-001 4.78260875e-001 2.00000003e-001
      2.91666657e-001 4.48275894e-001 5.00000000e-001 5.00000000e-001
      2.26666674e-001 2.51308888e-001 4.66192186e-001 3.61445814e-001
      3.50877166e-001 5.42857170e-001 6.75675631e-001 1.06918246e-001
      2.85714298e-001 2.17391297e-001 3.55555534e-001 1.45833328e-001
      4.43548381e-001 3.52542371e-001 1.69354841e-001 3.42857152e-001
      4.09836054e-001 5.11627913e-001 9.03225839e-001 6.48648679e-001
      1.92307711e-001 2.63157904e-001 2.54545480e-001 1.15942024e-001
      4.54545438e-001 1.90000013e-001 3.28947365e-001 3.12500000e-001
      5.46391785e-001 7.01754391e-001 3.24999988e-001 3.93939376e-001
      4.16666657e-001 4.54545438e-001 2.50000000e-001 5.55555522e-001
      2.00000018e-001 1.47540987e-001 1.55080214e-001 2.50000000e-001
      1.22009575e-001 2.68817216e-001 6.66666687e-001 6.15384638e-001
      5.26315808e-001 5.33333361e-001 2.89473683e-001 3.46153855e-001
      3.90243888e-001 2.35294119e-001 1.41176462e-001 1.47540987e-001
      2.38805965e-001 1.66666657e-001 1.61764696e-001 2.67973840e-001
      4.32176650e-001 3.58974367e-001 2.19178081e-001 3.88888896e-001
      4.70588237e-001 7.58620679e-001 6.78571463e-001 5.00000000e-001
      2.50000000e-001 2.18749985e-001 2.85714269e-001 1.54639170e-001
      2.31999993e-001 2.18023255e-001 2.21212134e-001 2.97297299e-001
      3.13725501e-001 5.00000000e-001 2.25806460e-001 2.50000000e-001
      4.65116262e-001 4.28571433e-001 3.46153855e-001 3.25581402e-001
      2.42424250e-001 2.33644858e-001 1.77570090e-001 1.92743763e-001
      2.28070155e-001 1.49999991e-001 4.13793117e-001 4.13793117e-001
      2.85714269e-001 5.55555522e-001 5.94202876e-001 2.50000000e-001
      1.62162155e-001 1.69902906e-001 1.03448272e-001 9.73236039e-002
      2.07920805e-001 1.81818172e-001 2.94117659e-001 2.59259254e-001
      2.22222224e-001 3.66666675e-001 1.81818187e-001 1.73333332e-001
      1.55737713e-001 1.92513376e-001 2.35059768e-001 1.87500015e-001
      2.65625000e-001 2.50000000e-001 3.10344815e-001 3.57142866e-001
      9.52380970e-002 1.36363640e-001 1.81208059e-001 1.66441128e-001
      2.75862068e-001 2.54716992e-001 2.91666657e-001 3.47826093e-001
      1.37931034e-001 2.54901975e-001 1.53846160e-001 1.84210524e-001
      3.30472082e-001 3.32123399e-001 3.41085285e-001 3.78378361e-001
      3.75000000e-001 4.00000036e-001 3.66666675e-001 2.29166657e-001
      1.42857134e-001 2.12121218e-001 3.15789461e-001 2.26666674e-001
      3.24324310e-001 3.03030312e-001 1.78571433e-001 3.10344815e-001
      3.42857152e-001 2.94520557e-001 2.66666681e-001 3.05555552e-001
      3.07692319e-001 2.00000003e-001 4.28571433e-001 2.60869563e-001
      4.52380925e-001 4.44444418e-001 3.57142836e-001 2.58064508e-001
      3.33333313e-001 3.19999993e-001 4.37499970e-001 3.63636374e-001
      5.31250000e-001 3.23529392e-001 1.78082198e-001 1.74999997e-001
      3.15789461e-001 2.58064508e-001 2.39999995e-001 3.75000000e-001
      1.28205135e-001 3.04347843e-001 2.50000000e-001 2.00000003e-001
      1.82608694e-001 2.96178341e-001 3.34218919e-001</_>
    <_>
      4.10764739e-002 3.05343494e-002 8.82352963e-002 2.60273963e-001
      1.85185194e-001 2.72727281e-001 1.92982450e-001 3.75000000e-001
      2.05882356e-001 2.96296299e-001 3.55555534e-001 2.37410083e-001
      4.25925940e-001 3.33333343e-001 4.99999970e-001 3.26797366e-001
      6.24999940e-001 3.78787875e-001 5.09433985e-001 4.20289874e-001
      4.05405432e-001 3.52656990e-001 1.21212117e-001 2.50000000e-001
      5.84615409e-001 3.23529392e-001 2.50000000e-001 2.60869563e-001
      1.79487169e-001 1.47058830e-001 1.42857149e-001 5.19999981e-001
      5.21739125e-001 2.08333328e-001 2.37037033e-001 2.23214298e-001
      1.90775678e-001 9.35251787e-002 1.20689660e-001 2.83582091e-001
      4.75000024e-001 4.56310660e-001 3.10975611e-001 2.17228472e-001
      4.39490438e-001 2.19626173e-001 2.43902430e-002 2.75362313e-001
      5.41666687e-001 6.12244904e-001 6.00000024e-001 5.23437500e-001
      2.30158716e-001 1.82108611e-001 2.88461506e-001 5.88235222e-002
      2.50000000e-001 4.84848469e-001 4.90909100e-001 6.07142866e-001
      4.46808517e-001 5.22727311e-001 3.64406765e-001 1.76056340e-001
      3.37078631e-001 2.85714269e-001 3.26086968e-001 2.80000001e-001
      1.66666672e-001 4.48275894e-001 5.68181813e-001 7.77777731e-001
      3.46666664e-001 4.55497354e-001 7.18861222e-001 4.33734953e-001
      4.56140339e-001 2.85714269e-001 4.32432443e-001 1.57232702e-001
      2.44897947e-001 2.31884062e-001 4.00000006e-001 3.85416687e-001
      3.70967746e-001 3.18644047e-001 3.44758064e-001 6.64285779e-001
      3.11475396e-001 4.65116262e-001 2.58064508e-001 2.16216207e-001
      3.84615421e-001 4.73684222e-001 2.90909082e-001 1.15942024e-001
      3.81818175e-001 2.04999998e-001 2.41228074e-001 2.94117659e-001
      4.63917524e-001 4.91228074e-001 2.50000000e-001 4.24242437e-001
      4.16666657e-001 1.51515156e-001 9.37500000e-002 3.70370358e-001
      2.18181819e-001 3.11475426e-001 1.28342241e-001 2.05357134e-001
      1.77033514e-001 2.00716853e-001 3.95061731e-001 2.11538464e-001
      5.78947365e-001 4.00000036e-001 4.73684192e-001 2.69230783e-001
      9.75609720e-002 5.88235296e-002 2.23529398e-001 2.62295097e-001
      3.88059676e-001 2.50000000e-001 1.72794119e-001 2.02614397e-001
      2.42902189e-001 2.39316240e-001 2.32876718e-001 2.77777791e-001
      3.82352918e-001 6.20689631e-001 2.14285716e-001 3.88888896e-001
      2.50000000e-001 3.75000000e-001 3.96825403e-001 2.06185564e-001
      2.71999985e-001 3.66279066e-001 1.39393941e-001 2.79279292e-001
      2.94117659e-001 4.37499970e-001 9.67741981e-002 2.77777761e-001
      3.25581402e-001 2.50000000e-001 2.30769247e-001 5.11627913e-001
      3.63636374e-001 2.42990658e-001 2.00934589e-001 2.76643991e-001
      4.29824531e-001 3.49999964e-001 2.06896558e-001 3.10344815e-001
      3.57142866e-001 4.72222209e-001 2.31884062e-001 4.03846145e-001
      3.91891897e-001 2.96116501e-001 1.92118227e-001 3.23600978e-001
      2.77227730e-001 3.03030282e-001 2.35294119e-001 2.96296299e-001
      4.07407403e-001 2.33333349e-001 3.18181813e-001 3.33333313e-001
      2.74590164e-001 1.36363626e-001 2.19123498e-001 2.73437500e-001
      3.90625000e-001 1.66666672e-001 2.75862068e-001 1.07142858e-001
      1.42857149e-001 1.36363640e-001 2.95302033e-001 1.97564274e-001
      1.59482762e-001 3.49056602e-001 6.45833313e-001 6.52173907e-002
      1.72413796e-001 7.84313753e-002 7.69230798e-002 1.31578952e-001
      3.13304693e-001 2.94010907e-001 1.78294584e-001 4.59459454e-001
      5.41666627e-001 1.66666672e-001 1.66666672e-001 4.16666642e-002
      6.59340620e-002 3.65967363e-001 2.26315781e-001 2.80000001e-001
      2.97297299e-001 1.51515156e-001 1.42857134e-001 2.06896558e-001
      1.14285715e-001 1.78082198e-001 2.16666669e-001 3.88888866e-001
      2.30769232e-001 2.57142872e-001 3.57142866e-001 4.34782617e-002
      2.61904746e-001 4.72222209e-001 2.85714269e-001 3.54838729e-001
      3.05555552e-001 7.99999982e-002 2.18750000e-001 5.15151501e-001
      5.31250000e-001 4.11764711e-001 1.09589040e-001 3.74999970e-001
      6.05263174e-001 2.58064508e-001 0. 5.31250000e-001 6.92307651e-001
      1.30434781e-001 4.10714269e-001 4.85714316e-001 1.47826090e-001
      1.68789804e-001 2.15727940e-001</_>
    <_>
      1.06232250e-002 3.05343494e-002 5.88235296e-002 2.19178095e-001
      2.22222224e-001 1.21212125e-001 2.63157904e-001 2.91666657e-001
      3.52941185e-001 2.96296299e-001 4.22222197e-001 1.15107909e-001
      4.25925940e-001 2.46376798e-001 3.91304314e-001 1.96078435e-001
      1.25000000e-001 4.99999970e-001 3.01886797e-001 2.46376827e-001
      3.64864856e-001 3.38164270e-001 1.21212117e-001 3.92857134e-001
      2.30769217e-001 2.49999985e-001 3.57142866e-001 4.20289844e-001
      4.68531460e-001 0. 2.57142872e-001 4.39999968e-001 2.60869563e-001
      1.80555552e-001 2.59259254e-001 4.37500000e-001 7.29559720e-001
      5.03597036e-002 2.24137932e-001 2.98507482e-001 3.75000030e-001
      4.27184463e-001 4.02439028e-001 5.84269702e-001 3.80042464e-001
      4.53271031e-001 4.87804860e-002 1.30434781e-001 1.87500015e-001
      1.83673456e-001 2.59999990e-001 2.57812500e-001 3.17460328e-001
      3.70606989e-001 3.46153855e-001 3.08823496e-001 2.08333343e-001
      9.09090936e-002 4.18181837e-001 1.96428567e-001 2.02127665e-001
      2.72727281e-001 1.65254235e-001 2.32394367e-001 3.25842679e-001
      3.09523821e-001 1.52173907e-001 7.99999982e-002 4.16666627e-001
      3.79310369e-001 5.68181813e-001 2.77777791e-001 1.13333337e-001
      2.30366498e-001 2.02846974e-001 8.43373537e-002 3.33333313e-001
      3.14285725e-001 1.62162155e-001 1.06918246e-001 2.65306115e-001
      4.78260875e-001 5.55555522e-001 3.64583343e-001 2.25806460e-001
      9.15254205e-002 1.67338699e-001 1.35714278e-001 2.29508191e-001
      2.09302336e-001 1.93548396e-001 2.97297299e-001 2.69230783e-001
      2.28070170e-001 2.00000003e-001 3.33333313e-001 4.36363637e-001
      2.44999990e-001 2.10526302e-001 6.98529407e-002 5.15463948e-002
      2.98245639e-001 2.50000000e-001 2.42424235e-001 2.22222224e-001
      1.51515156e-001 1.87500000e-001 1.85185194e-001 2.36363649e-001
      4.09836054e-001 2.56684482e-001 4.73214298e-001 3.49282295e-001
      2.75985658e-001 3.20987672e-001 3.46153855e-001 4.73684192e-001
      2.00000018e-001 3.94736826e-001 3.46153855e-001 4.87804860e-002
      5.88235296e-002 1.76470593e-001 1.96721300e-001 2.53731340e-001
      2.33333349e-001 1.80147067e-001 1.63398698e-001 2.96529949e-001
      5.12820482e-001 3.42465758e-001 3.05555552e-001 2.64705867e-001
      2.75862068e-001 3.92857134e-001 2.22222224e-001 1.25000000e-001
      2.65624970e-001 2.85714269e-001 2.37113386e-001 2.16000006e-001
      1.80232555e-001 1.15151517e-001 1.44144148e-001 1.37254909e-001
      3.43750000e-001 1.61290333e-001 1.66666672e-001 2.09302336e-001
      1.42857134e-001 3.84615421e-001 2.79069781e-001 1.81818172e-001
      2.80373842e-001 2.28971958e-001 1.99546486e-001 2.45614022e-001
      3.24999988e-001 3.44827592e-001 2.41379306e-001 2.14285716e-001
      2.77777761e-001 1.73913047e-001 3.84615362e-001 2.09459454e-001
      1.94174767e-001 1.47783250e-001 2.04379559e-001 1.98019803e-001
      2.87878752e-001 3.52941185e-001 3.70370388e-001 1.85185194e-001
      2.66666681e-001 1.36363640e-001 1.86666667e-001 3.48360658e-001
      1.12299457e-001 7.56972134e-002 2.42187500e-001 2.96874970e-001
      3.88888896e-001 3.10344815e-001 2.85714269e-001 9.52380970e-002
      1.36363640e-001 4.83221471e-001 2.85520971e-001 2.21982762e-001
      1.60377353e-001 2.91666657e-001 3.26086938e-001 4.13793117e-001
      1.56862751e-001 1.53846160e-001 2.10526317e-001 8.41201723e-001
      7.47731447e-001 6.51162803e-001 4.59459454e-001 7.08333313e-001
      1.66666672e-001 2.00000018e-001 1.04166672e-001 9.89010930e-002
      5.87412596e-001 6.63157880e-001 1.99999988e-001 3.24324310e-001
      3.33333313e-001 3.92857134e-001 3.10344815e-001 8.57142881e-002
      3.97260278e-001 4.66666669e-001 3.33333313e-001 4.23076928e-001
      2.57142872e-001 4.28571433e-001 4.34782617e-002 2.85714298e-001
      3.61111104e-001 2.85714269e-001 2.90322602e-001 1.66666672e-001
      1.59999996e-001 3.12500000e-001 3.33333313e-001 3.75000000e-001
      2.05882356e-001 1.91780820e-001 3.24999988e-001 2.36842096e-001
      3.22580665e-001 1.59999996e-001 4.37500000e-001 3.07692319e-001
      2.60869563e-001 2.50000000e-001 2.00000003e-001 7.82608688e-002
      1.75159231e-001 1.20616376e-001</_>
    <_>
      2.20963180e-001 5.34351170e-002 8.82352963e-002 3.69863033e-001
      2.96296299e-001 2.42424235e-001 3.15789491e-001 1.66666657e-001
      2.35294119e-001 3.33333343e-001 5.33333302e-001 3.88489217e-001
      4.25925940e-001 2.89855093e-001 3.47826093e-001 3.72549027e-001
      1.66666657e-001 4.24242407e-001 4.33962286e-001 4.63768154e-001
      2.83783793e-001 2.99516916e-001 2.12121218e-001 3.57142866e-001
      4.00000006e-001 3.52941185e-001 3.39285702e-001 2.46376827e-001
      1.07226111e-001 1.47058830e-001 2.00000003e-001 4.39999968e-001
      3.47826064e-001 3.05555552e-001 2.37037033e-001 1.25000000e-001
      7.75681287e-002 2.30215833e-001 5.68965554e-001 2.98507482e-001
      4.24999982e-001 4.46601957e-001 2.25609735e-001 2.09737837e-001
      2.10191086e-001 2.80373842e-001 2.19512179e-001 3.91304344e-001
      2.70833343e-001 5.10204077e-001 3.20000023e-001 1.25000000e-001
      1.58730149e-001 1.69329077e-001 3.55769187e-001 3.97058785e-001
      4.58333313e-001 3.93939376e-001 3.45454574e-001 4.10714298e-001
      2.34042540e-001 4.77272719e-001 3.05084735e-001 1.23239450e-001
      4.04494345e-001 3.80952388e-001 2.39130422e-001 3.59999985e-001
      3.33333313e-001 2.75862068e-001 2.72727251e-001 5.00000000e-001
      2.19999999e-001 2.61780083e-001 3.98576528e-001 3.37349415e-001
      3.15789491e-001 2.57142872e-001 2.43243247e-001 3.08176100e-001
      5.71428597e-001 5.07246375e-001 4.44444418e-001 4.89583284e-001
      4.03225780e-001 2.98305094e-001 2.70161301e-001 4.64285731e-001
      3.44262302e-001 2.32558146e-001 4.83870953e-001 2.43243247e-001
      2.30769247e-001 5.43859661e-001 4.18181837e-001 3.47826064e-001
      4.90909070e-001 2.00000003e-001 1.79824561e-001 1.98529407e-001
      3.29896897e-001 3.68421078e-001 2.50000000e-001 3.63636374e-001
      1.38888896e-001 3.33333313e-001 9.37500000e-002 2.59259254e-001
      2.72727251e-001 5.08196712e-001 1.92513376e-001 2.05357134e-001
      1.57894745e-001 1.32616490e-001 3.45679015e-001 4.03846145e-001
      4.73684192e-001 2.66666681e-001 1.57894731e-001 2.50000000e-001
      1.95121944e-001 1.47058830e-001 2.23529398e-001 2.95081943e-001
      4.02985066e-001 1.50000006e-001 2.24264711e-001 2.38562092e-001
      1.51419550e-001 1.62393168e-001 2.87671238e-001 4.44444448e-001
      3.23529392e-001 4.48275834e-001 2.50000000e-001 1.66666672e-001
      1.56250000e-001 3.12500000e-001 5.23809493e-001 4.43298966e-001
      2.16000006e-001 1.97674423e-001 1.63636357e-001 3.42342347e-001
      3.33333343e-001 3.43750000e-001 2.90322572e-001 6.11111104e-001
      1.86046511e-001 3.57142836e-002 2.69230783e-001 4.18604672e-001
      3.18181843e-001 3.08411211e-001 2.61682242e-001 2.38095224e-001
      2.28070155e-001 3.99999976e-001 4.13793117e-001 3.44827592e-001
      5.00000000e-001 3.05555552e-001 1.01449281e-001 3.84615362e-001
      3.24324310e-001 2.57281542e-001 1.23152710e-001 4.01459873e-001
      3.86138588e-001 2.57575750e-001 2.94117659e-001 2.59259254e-001
      4.07407403e-001 2.00000018e-001 1.36363640e-001 2.53333330e-001
      2.09016398e-001 1.20320849e-001 2.86852598e-001 3.75000030e-001
      2.34375000e-001 2.77777791e-001 2.41379306e-001 1.78571433e-001
      2.14285716e-001 4.54545468e-002 1.94630891e-001 1.09607570e-001
      1.74568966e-001 3.20754737e-001 5.00000000e-001 3.91304344e-001
      2.41379306e-001 1.96078438e-002 1.28205135e-001 2.63157897e-002
      2.14592263e-001 1.77858442e-001 1.78294584e-001 4.32432443e-001
      3.33333313e-001 3.00000012e-001 4.00000036e-001 6.25000000e-002
      8.79120827e-002 2.28438228e-001 3.10526311e-001 5.19999981e-001
      6.21621609e-001 2.12121218e-001 4.28571433e-001 4.48275834e-001
      2.28571430e-001 1.57534257e-001 4.66666669e-001 5.27777791e-001
      5.76923072e-001 4.57142860e-001 3.92857134e-001 3.04347843e-001
      5.00000000e-001 6.66666627e-001 6.07142866e-001 4.51612890e-001
      4.72222209e-001 3.59999985e-001 4.68750000e-001 4.24242437e-001
      5.00000000e-001 3.82352918e-001 2.60273993e-001 4.24999982e-001
      6.05263174e-001 4.19354826e-001 1.19999997e-001 2.50000000e-001
      3.07692319e-001 4.34782617e-002 1.78571433e-001 1.42857149e-001
      6.08695671e-002 3.78980875e-001 4.14984018e-001</_>
    <_>
      1.55807346e-001 7.25190863e-002 8.82352963e-002 2.60273963e-001
      3.70370388e-001 2.72727281e-001 3.33333343e-001 1.66666657e-001
      3.23529392e-001 4.07407403e-001 2.88888872e-001 1.58273384e-001
      2.22222224e-001 1.73913047e-001 2.60869533e-001 1.50326803e-001
      1.66666657e-001 1.36363626e-001 1.69811323e-001 2.02898577e-001
      1.48648649e-001 2.22222224e-001 2.42424235e-001 3.21428567e-001
      1.53846160e-001 2.20588237e-001 3.48214298e-001 3.04347843e-001
      3.98601413e-001 2.35294119e-001 4.85714316e-001 3.19999993e-001
      4.56521720e-001 3.47222239e-001 4.00000006e-001 3.42261881e-001
      3.54297698e-001 1.15107909e-001 2.93103427e-001 3.28358203e-001
      3.00000012e-001 3.00970852e-001 2.01219514e-001 3.85767817e-001
      3.67303610e-001 4.48598146e-001 2.43902430e-002 2.02898562e-001
      4.58333373e-001 3.46938789e-001 2.00000003e-001 1.71875000e-001
      1.50793657e-001 2.30031937e-001 4.80769217e-001 3.97058785e-001
      1.66666657e-001 2.42424235e-001 2.90909082e-001 1.96428567e-001
      1.27659559e-001 2.15909079e-001 1.61016956e-001 3.52112725e-002
      2.35955060e-001 3.80952388e-001 2.60869563e-001 3.19999993e-001
      5.83333313e-001 2.06896558e-001 4.54545438e-001 2.96296299e-001
      1.06666669e-001 1.51832446e-001 3.16725999e-001 3.13253015e-001
      3.50877166e-001 3.71428579e-001 2.43243247e-001 1.44654080e-001
      4.28571433e-001 3.91304344e-001 4.66666669e-001 2.81250000e-001
      2.09677413e-001 1.32203400e-001 1.71370968e-001 3.21428597e-001
      1.63934425e-001 2.55813956e-001 3.54838729e-001 2.43243247e-001
      1.53846160e-001 3.85964900e-001 4.36363667e-001 3.33333313e-001
      5.63636303e-001 2.44999990e-001 2.14912266e-001 1.83823526e-001
      3.71134043e-001 2.80701756e-001 2.24999994e-001 4.54545438e-001
      2.77777791e-001 2.72727281e-001 1.25000000e-001 2.96296299e-001
      2.90909082e-001 2.62295067e-001 1.87165782e-001 5.35714269e-001
      2.44019151e-001 1.93548396e-001 3.70370358e-001 2.69230783e-001
      5.52631557e-001 4.66666698e-001 3.68421048e-001 7.69230798e-002
      1.70731694e-001 8.82352963e-002 2.70588249e-001 2.29508206e-001
      3.43283594e-001 1.99999988e-001 2.09558830e-001 3.13725501e-001
      5.58359623e-001 2.90598303e-001 2.46575326e-001 1.94444448e-001
      2.64705867e-001 6.89655170e-002 2.85714269e-001 1.66666672e-001
      1.56250000e-001 3.43749970e-001 2.06349209e-001 2.78350502e-001
      2.24000007e-001 1.59883723e-001 1.87878773e-001 3.42342347e-001
      1.56862751e-001 2.50000000e-001 3.54838699e-001 5.55555560e-002
      2.55813956e-001 7.14285672e-002 5.00000000e-001 5.11627913e-001
      3.63636374e-001 4.20560747e-001 3.55140209e-001 1.11111112e-001
      1.75438598e-001 3.49999964e-001 4.13793117e-001 2.75862068e-001
      2.85714269e-001 1.11111119e-001 8.69565234e-002 3.07692319e-001
      2.29729712e-001 2.33009711e-001 2.01970443e-001 2.33576626e-001
      3.01980168e-001 1.81818172e-001 2.64705896e-001 5.55555522e-001
      3.70370388e-001 2.33333349e-001 1.81818187e-001 4.79999989e-001
      1.84426233e-001 1.49732620e-001 4.66135472e-001 4.76562500e-001
      4.53125000e-001 3.61111104e-001 4.13793117e-001 1.42857134e-001
      1.90476194e-001 9.09090936e-002 4.09395993e-001 1.51556149e-001
      2.78017253e-001 4.81132090e-001 4.37499970e-001 1.73913047e-001
      2.06896558e-001 2.54901975e-001 2.30769217e-001 1.57894731e-001
      3.86266083e-001 2.59528130e-001 4.18604642e-001 4.86486495e-001
      5.83333313e-001 2.33333349e-001 1.66666672e-001 2.70833313e-001
      7.69230723e-002 4.35897410e-001 3.31578940e-001 3.46666664e-001
      3.51351351e-001 2.72727281e-001 4.28571433e-001 1.72413796e-001
      2.00000003e-001 3.01369876e-001 4.83333349e-001 5.00000000e-001
      3.84615391e-001 2.85714298e-001 1.42857134e-001 3.47826093e-001
      2.85714298e-001 5.83333313e-001 6.78571463e-001 6.77419364e-001
      2.50000000e-001 2.39999995e-001 3.43750000e-001 7.57575750e-001
      3.43750000e-001 4.70588237e-001 1.78082198e-001 4.49999988e-001
      4.47368413e-001 4.19354826e-001 3.19999993e-001 4.06250000e-001
      7.69230798e-002 1.30434781e-001 1.60714284e-001 8.57142881e-002
      6.08695671e-002 2.38853499e-001 3.01806569e-001</_>
    <_>
      2.23796025e-001 1.37404591e-001 5.88235296e-002 2.19178095e-001
      2.59259254e-001 9.09090862e-002 2.63157904e-001 3.33333313e-001
      1.76470593e-001 1.85185194e-001 8.88888910e-002 1.87050372e-001
      3.14814836e-001 1.30434781e-001 4.34782617e-002 1.30718946e-001
      8.33333284e-002 3.93939376e-001 1.13207549e-001 8.69565308e-002
      1.62162155e-001 8.69565159e-002 1.51515156e-001 1.42857134e-001
      1.23076923e-001 1.76470593e-001 9.82142836e-002 7.24637657e-002
      7.92540759e-002 8.82352963e-002 1.42857149e-001 4.00000006e-001
      3.69565219e-001 2.22222224e-001 1.33333325e-001 9.22619030e-002
      2.85115302e-001 4.96402889e-001 4.48275864e-001 3.28358203e-001
      2.75000006e-001 2.81553388e-001 2.07317069e-001 1.72284648e-001
      2.65392780e-001 1.72897190e-001 1.95121944e-001 4.05797094e-001
      6.87500000e-001 2.44897947e-001 3.79999995e-001 2.03125000e-001
      1.34920627e-001 1.91693276e-001 3.17307681e-001 2.20588237e-001
      4.58333313e-001 3.03030312e-001 5.81818223e-001 3.21428567e-001
      3.40425521e-001 2.72727281e-001 2.75423735e-001 2.04225376e-001
      2.92134821e-001 3.33333343e-001 3.91304344e-001 2.80000001e-001
      2.91666657e-001 1.37931049e-001 3.63636374e-001 3.14814806e-001
      1.40000001e-001 1.62303656e-001 2.91814983e-001 3.97590369e-001
      4.56140339e-001 3.42857122e-001 2.16216207e-001 3.45911950e-001
      4.89795893e-001 5.94202876e-001 4.88888890e-001 5.20833313e-001
      2.58064508e-001 1.89830512e-001 1.69354841e-001 4.00000006e-001
      5.08196712e-001 6.51162803e-001 3.87096763e-001 3.24324310e-001
      3.07692319e-001 5.43859661e-001 6.36363685e-001 5.94202876e-001
      4.18181807e-001 3.05000037e-001 1.97368428e-001 1.10294111e-001
      3.40206176e-001 5.96491277e-001 4.49999988e-001 2.42424235e-001
      2.50000000e-001 1.81818187e-001 4.37500000e-001 2.96296299e-001
      6.18181884e-001 7.54098296e-001 3.68983954e-001 5.35714269e-001
      3.37320566e-001 2.40143389e-001 4.56790119e-001 4.42307711e-001
      5.00000000e-001 4.00000036e-001 2.89473683e-001 2.11538464e-001
      1.21951215e-001 2.05882356e-001 2.58823544e-001 3.77049178e-001
      2.68656701e-001 1.83333337e-001 1.13970593e-001 6.53594807e-002
      1.07255511e-001 1.36752129e-001 2.87671238e-001 3.88888896e-001
      2.64705867e-001 4.13793117e-001 2.14285716e-001 0. 4.68750000e-001
      4.37500000e-001 3.01587284e-001 1.95876271e-001 1.28000006e-001
      9.01162848e-002 8.18181783e-002 2.61261255e-001 3.72549027e-001
      2.81250000e-001 3.54838699e-001 3.88888866e-001 2.79069752e-001
      1.78571433e-001 3.07692319e-001 4.65116262e-001 2.42424250e-001
      2.24299058e-001 2.99065411e-001 1.99546486e-001 2.71929801e-001
      2.49999985e-001 2.75862068e-001 2.06896558e-001 2.85714269e-001
      2.22222224e-001 1.88405797e-001 3.84615362e-001 3.37837845e-001
      2.52427191e-001 1.23152710e-001 3.38199526e-001 4.00990099e-001
      3.78787875e-001 2.05882356e-001 1.48148149e-001 2.22222224e-001
      2.00000018e-001 2.27272734e-001 4.53333318e-001 4.05737728e-001
      2.00534761e-001 1.71314746e-001 3.67187530e-001 3.90625000e-001
      3.05555552e-001 2.41379306e-001 3.57142866e-001 2.38095243e-002
      4.54545468e-002 2.95302033e-001 1.92151561e-001 2.34913811e-001
      3.96226406e-001 4.79166657e-001 2.82608688e-001 2.06896558e-001
      9.80392247e-002 2.05128193e-001 7.89473653e-002 5.27897000e-001
      2.68602550e-001 4.26356584e-001 8.91891897e-001 4.58333313e-001
      4.33333337e-001 6.66666701e-002 2.08333343e-001 2.19780207e-002
      5.26806533e-001 6.21052623e-001 5.46666622e-001 7.83783734e-001
      4.24242437e-001 3.57142866e-001 3.10344815e-001 8.57142881e-002
      3.56164396e-001 7.50000000e-001 5.55555522e-001 4.61538464e-001
      1.71428576e-001 1.07142858e-001 1.30434781e-001 8.09523821e-001
      4.44444418e-001 7.85714269e-001 3.54838729e-001 2.22222224e-001
      2.00000003e-001 5.00000000e-001 5.75757563e-001 4.37500000e-001
      2.05882356e-001 1.23287678e-001 3.24999988e-001 3.94736826e-001
      3.22580665e-001 1.19999997e-001 2.50000000e-001 1.28205135e-001
      1.30434781e-001 2.14285716e-001 1.42857149e-001 1.04347833e-001
      2.10191071e-001 3.41657817e-001</_>
    <_>
      6.11898005e-001 2.13740453e-001 1.76470593e-001 1.91780835e-001
      4.07407403e-001 2.42424235e-001 2.80701727e-001 2.08333343e-001
      3.82352918e-001 3.33333343e-001 3.55555534e-001 3.52517992e-001
      3.70370358e-001 4.05797094e-001 4.13043469e-001 1.76470578e-001
      8.33333284e-002 1.96969688e-001 3.20754737e-001 4.63768154e-001
      1.75675675e-001 1.44927517e-001 2.72727281e-001 2.14285716e-001
      2.76923090e-001 4.26470608e-001 3.03571433e-001 3.33333313e-001
      1.88811183e-001 2.94117648e-002 2.00000003e-001 4.39999968e-001
      1.73913047e-001 2.22222224e-001 2.29629621e-001 1.33928582e-001
      1.25786170e-001 3.45323741e-001 2.41379321e-001 1.49253726e-001
      1.25000000e-001 2.13592216e-001 6.09756112e-002 1.19850196e-001
      9.76645425e-002 3.17757010e-001 1.70731694e-001 1.88405797e-001
      2.50000000e-001 6.12244867e-002 7.99999982e-002 1.32812500e-001
      7.53968209e-002 8.62619802e-002 2.88461503e-002 2.49999970e-001
      4.58333313e-001 3.03030312e-001 2.54545480e-001 2.85714298e-001
      1.06382973e-001 2.50000000e-001 1.01694919e-001 7.04225376e-002
      1.34831458e-001 2.14285716e-001 4.13043439e-001 1.59999996e-001
      4.58333313e-001 3.79310369e-001 2.04545453e-001 3.51851881e-001
      1.59999996e-001 2.35602096e-001 2.31316730e-001 2.28915676e-001
      4.21052605e-001 2.85714269e-001 2.70270258e-001 5.28301895e-001
      5.30612230e-001 6.23188436e-001 6.44444406e-001 2.18750000e-001
      1.85483858e-001 1.66101694e-001 1.57258064e-001 2.92857140e-001
      2.45901644e-001 3.25581402e-001 1.29032269e-001 2.70270258e-001
      1.92307711e-001 5.96491277e-001 6.90909088e-001 7.24637628e-001
      2.72727281e-001 1.19999997e-001 1.05263159e-001 0. 1.54639170e-001
      4.91228074e-001 2.99999982e-001 1.51515156e-001 1.38888896e-001
      6.06060587e-002 5.00000000e-001 2.96296299e-001 9.45454597e-001
      9.83606577e-001 2.45989323e-001 2.50000000e-001 1.33971304e-001
      1.14695340e-001 1.97530851e-001 3.65384609e-001 4.21052635e-001
      1.66666672e-001 1.31578952e-001 1.92307699e-002 9.75609720e-002
      5.88235296e-002 1.41176462e-001 1.63934425e-001 3.28358203e-001
      3.66666675e-001 1.47058830e-001 1.07843138e-001 1.98738158e-001
      2.05128193e-001 3.56164396e-001 3.33333343e-001 3.52941185e-001
      5.86206913e-001 2.14285716e-001 1.11111112e-001 6.25000000e-002
      3.12500000e-001 3.80952358e-001 3.50515455e-001 2.24000007e-001
      1.33720934e-001 1.90909088e-001 3.69369358e-001 2.15686277e-001
      2.81250000e-001 2.25806460e-001 1.66666672e-001 1.86046511e-001
      1.07142858e-001 3.07692319e-001 5.58139503e-001 3.33333343e-001
      2.80373842e-001 1.12149529e-001 1.45124719e-001 2.45614022e-001
      3.74999970e-001 1.37931034e-001 1.37931034e-001 1.07142858e-001
      2.77777761e-001 1.01449281e-001 7.30769277e-001 5.13513446e-001
      2.86407769e-001 1.69950739e-001 2.04379559e-001 3.21782202e-001
      4.39393908e-001 2.64705896e-001 1.11111112e-001 4.44444448e-001
      3.00000012e-001 4.09090906e-001 4.53333318e-001 3.27868849e-001
      3.10160428e-001 3.30677301e-001 3.90625000e-001 4.53125000e-001
      1.94444448e-001 1.72413796e-001 2.50000000e-001 2.14285716e-001
      1.36363640e-001 3.35570484e-001 2.00270623e-001 2.95258641e-001
      6.98113203e-001 4.37499970e-001 4.56521720e-001 2.41379306e-001
      5.88235334e-002 5.12820482e-002 1.57894731e-001 2.66094416e-001
      3.10344845e-001 4.57364351e-001 5.67567527e-001 2.08333343e-001
      6.00000024e-001 6.66666701e-002 8.33333284e-002 7.69230723e-002
      2.26107210e-001 4.00000006e-001 5.86666644e-001 5.13513505e-001
      5.75757563e-001 3.92857134e-001 1.37931034e-001 2.85714287e-002
      1.64383575e-001 7.33333349e-001 7.77777791e-001 3.84615391e-001
      5.14285743e-001 3.92857134e-001 4.34782617e-002 4.28571463e-001
      3.88888896e-001 7.49999940e-001 2.25806445e-001 3.61111104e-001
      3.99999991e-002 5.31250000e-001 5.75757563e-001 4.68750000e-001
      2.94117659e-001 1.50684938e-001 4.24999982e-001 3.94736826e-001
      4.19354826e-001 2.00000003e-001 2.50000000e-001 7.69230798e-002
      2.17391312e-001 8.92857164e-002 5.71428575e-002 1.73913054e-002
      2.10191071e-001 3.90010625e-001</_>
    <_>
      3.95892352e-001 1.60305351e-001 1.47058830e-001 3.01369876e-001
      3.70370388e-001 4.54545438e-001 2.63157904e-001 3.75000000e-001
      3.23529392e-001 4.81481463e-001 3.11111093e-001 2.58992821e-001
      2.96296299e-001 2.60869563e-001 2.60869533e-001 1.30718946e-001
      8.33333284e-002 7.57575780e-002 2.45283008e-001 2.31884062e-001
      2.97297329e-001 1.44927517e-001 1.51515156e-001 2.14285716e-001
      1.69230774e-001 1.47058830e-001 8.92857164e-002 1.81159422e-001
      2.44755253e-001 2.35294119e-001 2.28571430e-001 2.39999995e-001
      1.73913047e-001 9.72222164e-002 1.33333325e-001 1.66666657e-001
      3.27044010e-001 2.94964045e-001 4.13793117e-001 2.68656731e-001
      1.74999997e-001 1.65048540e-001 1.46341458e-001 2.92134851e-001
      2.25053087e-001 2.10280374e-001 1.70731694e-001 3.76811594e-001
      4.79166657e-001 1.02040812e-001 2.80000001e-001 2.03125000e-001
      2.02380940e-001 1.30990416e-001 2.21153840e-001 1.47058800e-001
      3.75000000e-001 6.06060624e-001 3.81818175e-001 3.75000030e-001
      6.38297871e-002 1.59090906e-001 1.14406772e-001 2.81690150e-001
      3.03370804e-001 1.66666672e-001 1.08695649e-001 1.59999996e-001
      7.91666687e-001 7.24137962e-001 5.68181813e-001 4.07407403e-001
      1.86666667e-001 1.15183242e-001 1.17437720e-001 2.89156646e-001
      2.45614022e-001 1.71428576e-001 1.08108111e-001 4.02515739e-001
      5.30612230e-001 6.23188436e-001 8.22222233e-001 5.93749940e-001
      3.22580636e-001 2.61016965e-001 1.31048381e-001 2.57142872e-001
      2.13114753e-001 2.55813956e-001 3.22580636e-002 1.62162155e-001
      4.61538494e-001 4.73684222e-001 5.09090960e-001 6.81159377e-001
      4.90909070e-001 3.10000002e-001 4.60526317e-001 2.53676474e-001
      2.47422680e-001 4.38596517e-001 2.50000000e-001 1.51515156e-001
      2.50000000e-001 2.42424235e-001 2.18750000e-001 1.85185194e-001
      6.36363685e-001 4.91803259e-001 3.58288765e-001 6.42857134e-001
      2.91866034e-001 3.18996429e-001 4.44444478e-001 3.26923072e-001
      4.21052635e-001 3.66666675e-001 4.73684192e-001 4.61538494e-001
      1.95121944e-001 1.76470593e-001 2.11764708e-001 2.62295097e-001
      1.79104462e-001 5.00000007e-002 3.30882370e-002 1.01307191e-001
      2.11356461e-001 3.16239297e-001 1.78082183e-001 2.22222224e-001
      8.82352963e-002 1.72413796e-001 1.42857134e-001 2.77777791e-001
      6.25000000e-002 2.34375000e-001 1.74603179e-001 1.34020612e-001
      7.20000044e-002 7.55813941e-002 1.81818157e-002 7.20720664e-002
      1.17647067e-001 2.50000000e-001 3.54838699e-001 1.94444448e-001
      1.86046511e-001 1.78571433e-001 3.46153855e-001 3.25581402e-001
      2.87878782e-001 6.54205605e-002 1.21495329e-001 1.13378681e-001
      5.26315793e-002 5.00000007e-002 2.41379306e-001 4.48275834e-001
      2.50000000e-001 1.94444448e-001 1.15942031e-001 3.65384638e-001
      1.89189181e-001 1.45631075e-001 1.05911329e-001 1.19221412e-001
      9.90099013e-002 1.66666657e-001 1.47058830e-001 2.96296299e-001
      3.70370388e-001 3.66666675e-001 2.27272734e-001 4.66666669e-001
      2.54098356e-001 1.49732620e-001 2.23107576e-001 2.10937515e-001
      1.40625000e-001 5.55555560e-002 6.89655170e-002 3.57142866e-001
      1.90476194e-001 0. 4.29530203e-001 2.92286873e-001 3.51293117e-001
      2.45283023e-001 1.87500000e-001 1.52173921e-001 1.37931034e-001
      1.17647067e-001 7.69230798e-002 2.63157897e-002 5.45064330e-001
      4.50090766e-001 3.64341080e-001 2.97297299e-001 2.50000000e-001
      1.00000009e-001 6.66666701e-002 1.66666657e-001 1.09890111e-001
      3.61305356e-001 5.36842108e-001 3.73333305e-001 3.24324310e-001
      2.72727281e-001 1.42857134e-001 2.75862068e-001 1.14285715e-001
      2.46575370e-001 6.66666627e-001 8.33333313e-001 5.38461506e-001
      4.28571433e-001 1.42857134e-001 2.60869563e-001 4.76190478e-001
      6.66666627e-001 5.35714269e-001 5.48387110e-001 5.27777791e-001
      1.59999996e-001 4.06250000e-001 7.57575750e-001 5.00000000e-001
      3.52941185e-001 2.73972601e-001 3.74999970e-001 4.73684192e-001
      3.87096792e-001 2.39999995e-001 6.56250000e-001 2.05128193e-001
      1.73913047e-001 3.21428567e-001 3.71428579e-001 1.39130443e-001
      2.13375807e-001 4.02762979e-001</_>
    <_>
      1.73512742e-001 1.37404591e-001 2.35294119e-001 1.50684938e-001
      3.70370373e-002 9.09090862e-002 5.26315756e-002 2.50000000e-001
      1.17647059e-001 1.48148149e-001 1.77777782e-001 5.03597036e-002
      3.70370358e-001 2.17391312e-001 3.26086938e-001 1.37254894e-001
      1.25000000e-001 2.87878752e-001 2.07547158e-001 1.44927546e-001
      3.37837845e-001 2.94685990e-001 1.81818187e-001 2.14285716e-001
      7.69230723e-002 3.52941185e-001 2.94642866e-001 3.40579718e-001
      3.86946380e-001 8.82352963e-002 5.71428575e-002 1.59999996e-001
      4.78260875e-001 2.49999985e-001 3.18518519e-001 1.57738104e-001
      1.67714879e-001 2.87769794e-001 3.10344815e-001 2.08955228e-001
      4.00000036e-001 4.17475730e-001 3.53658527e-001 5.35580575e-001
      3.97027612e-001 1.58878520e-001 1.70731694e-001 2.46376827e-001
      5.41666687e-001 6.93877578e-001 3.20000023e-001 5.62500000e-001
      3.57142836e-001 3.51437688e-001 4.13461536e-001 2.05882341e-001
      2.50000000e-001 2.72727281e-001 7.09090889e-001 5.35714328e-001
      2.76595742e-001 3.75000000e-001 4.91525441e-001 4.22535211e-001
      5.84269643e-001 5.23809552e-001 4.34782594e-001 0. 1.24999993e-001
      2.06896558e-001 5.68181813e-001 3.88888896e-001 1.33333340e-001
      2.67015696e-001 4.48398590e-001 5.90361476e-001 4.56140339e-001
      5.99999964e-001 4.86486495e-001 2.64150947e-001 8.16326588e-002
      1.88405797e-001 2.66666681e-001 3.43750000e-001 2.25806460e-001
      1.15254231e-001 1.33064523e-001 3.71428549e-001 3.93442601e-001
      5.11627913e-001 4.83870953e-001 2.97297299e-001 2.30769247e-001
      2.28070170e-001 2.00000003e-001 3.18840563e-001 2.72727281e-001
      1.94999993e-001 2.19298244e-001 1.94852948e-001 1.75257742e-001
      2.98245639e-001 6.25000000e-001 4.84848469e-001 2.77777791e-001
      1.21212117e-001 2.50000000e-001 2.22222224e-001 3.81818175e-001
      4.09836054e-001 1.71122998e-001 3.03571433e-001 1.65071771e-001
      3.54838729e-001 3.82716060e-001 1.73076928e-001 4.47368413e-001
      6.00000024e-001 4.47368413e-001 9.61538553e-002 0. 1.17647059e-001
      1.29411757e-001 1.96721300e-001 2.08955213e-001 3.66666675e-001
      2.16911763e-001 3.36601317e-001 8.07570934e-001 2.39316240e-001
      2.60273963e-001 3.61111104e-001 5.00000000e-001 4.48275834e-001
      2.14285716e-001 0. 1.56250000e-001 2.96875000e-001 3.17460299e-001
      4.94845331e-001 3.51999998e-001 2.64534891e-001 1.60606056e-001
      2.25225225e-001 3.13725501e-001 2.18750000e-001 5.16129017e-001
      4.16666657e-001 2.09302336e-001 1.07142858e-001 1.92307711e-001
      4.41860437e-001 3.33333343e-001 3.45794410e-001 3.45794410e-001
      2.90249437e-001 3.50877166e-001 3.99999976e-001 3.79310340e-001
      3.10344815e-001 4.28571433e-001 2.22222224e-001 1.88405797e-001
      2.69230753e-001 1.82432428e-001 3.49514574e-001 3.52216750e-001
      1.67883202e-001 1.93069309e-001 1.96969688e-001 2.05882356e-001
      3.33333343e-001 4.07407403e-001 2.33333349e-001 1.36363640e-001
      2.80000001e-001 3.15573782e-001 4.03743327e-001 6.97211146e-001
      1.79687515e-001 2.50000000e-001 1.38888896e-001 1.03448279e-001
      3.21428567e-001 1.19047627e-001 2.27272734e-001 2.08053693e-001
      1.82679296e-001 3.27586204e-001 2.16981143e-001 2.08333343e-001
      2.17391312e-001 1.72413796e-001 9.80392247e-002 1.53846160e-001
      7.89473653e-002 2.40343332e-001 1.61524504e-001 1.31782949e-001
      2.70270258e-001 3.75000000e-001 2.00000018e-001 2.00000018e-001
      2.08333321e-002 5.49450554e-002 1.65501162e-001 1.78947359e-001
      1.06666662e-001 8.10810775e-002 1.51515156e-001 2.50000000e-001
      1.03448279e-001 1.42857149e-001 1.50684938e-001 2.83333331e-001
      5.55555560e-002 2.69230783e-001 2.85714298e-001 1.42857134e-001
      8.69565234e-002 2.85714298e-001 2.49999985e-001 2.85714269e-001
      4.19354856e-001 1.11111119e-001 7.99999982e-002 2.50000000e-001
      3.33333313e-001 2.50000000e-001 5.88235296e-002 9.58904102e-002
      2.74999976e-001 2.36842096e-001 1.93548396e-001 7.99999982e-002
      4.37500000e-001 2.56410271e-001 2.17391312e-001 2.32142851e-001
      2.28571430e-001 1.04347833e-001 1.01910830e-001 1.89691812e-001</_>
    <_>
      1.73512742e-001 7.63358846e-002 5.88235296e-002 2.73972601e-001
      1.48148149e-001 3.33333343e-001 2.28070170e-001 4.16666642e-002
      2.35294119e-001 3.33333343e-001 1.11111112e-001 1.43884897e-001
      4.81481493e-001 3.47826093e-001 2.39130422e-001 9.15032700e-002
      2.50000000e-001 3.93939376e-001 4.52830166e-001 3.04347843e-001
      1.89189196e-001 1.20772943e-001 2.12121218e-001 3.92857134e-001
      4.15384620e-001 2.64705867e-001 2.50000000e-001 3.11594218e-001
      2.44755253e-001 1.76470593e-001 2.57142872e-001 5.19999981e-001
      4.78260875e-001 2.36111090e-001 2.07407400e-001 1.87500000e-001
      2.18029350e-001 2.51798570e-001 3.79310340e-001 2.98507482e-001
      6.25000060e-001 3.59223306e-001 2.13414639e-001 3.10861439e-001
      3.31210196e-001 2.99065411e-001 1.70731694e-001 2.60869563e-001
      4.58333373e-001 5.51020443e-001 4.40000027e-001 2.65625000e-001
      1.70634910e-001 2.07667723e-001 3.84615362e-001 1.76470578e-001
      1.66666657e-001 4.24242437e-001 5.27272761e-001 4.82142866e-001
      3.51063818e-001 3.29545438e-001 1.94915250e-001 1.26760557e-001
      2.13483140e-001 2.38095224e-001 1.73913047e-001 4.39999968e-001
      6.25000000e-001 6.89655185e-001 5.00000000e-001 6.85185194e-001
      2.66666651e-001 3.76963317e-001 3.13167274e-001 3.37349415e-001
      2.98245609e-001 2.85714269e-001 1.89189181e-001 2.57861644e-001
      6.73469424e-001 4.34782624e-001 4.22222197e-001 4.27083313e-001
      3.79032254e-001 2.61016965e-001 2.94354856e-001 4.57142889e-001
      3.27868849e-001 2.55813956e-001 5.16129076e-001 3.51351351e-001
      1.53846160e-001 4.38596487e-001 4.54545438e-001 3.47826064e-001
      5.63636303e-001 2.39999995e-001 2.06140339e-001 1.61764711e-001
      2.26804137e-001 5.61403513e-001 1.99999988e-001 5.15151501e-001
      5.55555582e-001 2.42424235e-001 2.50000000e-001 2.96296299e-001
      4.18181837e-001 4.09836054e-001 1.97860971e-001 4.19642836e-001
      3.39712918e-001 3.04659516e-001 3.33333343e-001 5.00000000e-001
      7.10526288e-001 4.00000036e-001 4.73684192e-001 1.92307711e-001
      2.43902430e-001 1.47058830e-001 1.29411757e-001 2.13114753e-001
      1.49253726e-001 1.33333325e-001 1.02941178e-001 1.27450988e-001
      1.19873814e-001 2.64957249e-001 2.60273963e-001 3.61111104e-001
      2.35294119e-001 5.51724136e-001 3.92857134e-001 5.55555560e-002
      2.50000000e-001 1.87500000e-001 2.22222224e-001 6.18556663e-002
      1.59999996e-001 2.12209314e-001 1.51515156e-001 1.35135129e-001
      2.15686277e-001 3.12500000e-001 4.19354826e-001 1.66666672e-001
      2.32558146e-001 1.42857134e-001 3.07692319e-001 2.09302321e-001
      1.36363640e-001 2.24299058e-001 1.44859821e-001 1.81405887e-001
      1.49122790e-001 1.25000000e-001 1.72413796e-001 2.75862068e-001
      3.92857134e-001 2.50000000e-001 1.15942031e-001 4.23076928e-001
      2.16216221e-001 1.50485441e-001 9.11330059e-002 1.67883202e-001
      2.02970296e-001 2.12121204e-001 2.64705896e-001 2.96296299e-001
      2.96296299e-001 2.33333349e-001 1.81818187e-001 2.39999980e-001
      2.54098356e-001 1.65775388e-001 1.23505980e-001 2.34375000e-001
      2.65625000e-001 3.33333343e-001 2.06896558e-001 1.42857134e-001
      2.38095254e-001 1.81818187e-001 3.69127512e-001 3.27469558e-001
      2.26293117e-001 3.30188692e-001 3.12499970e-001 2.60869563e-001
      1.37931034e-001 1.17647067e-001 2.82051265e-001 2.36842096e-001
      4.76394832e-001 3.13974589e-001 4.96124029e-001 6.21621609e-001
      7.08333313e-001 1.33333340e-001 3.00000012e-001 1.66666657e-001
      9.89010930e-002 4.61538464e-001 5.73684156e-001 5.33333302e-001
      4.32432443e-001 3.33333313e-001 2.50000000e-001 1.72413796e-001
      1.14285715e-001 2.80821919e-001 6.00000024e-001 5.55555522e-001
      4.23076928e-001 2.28571430e-001 1.78571433e-001 8.69565234e-002
      3.57142866e-001 5.83333313e-001 4.64285702e-001 6.12903237e-001
      2.50000000e-001 2.39999995e-001 2.50000000e-001 6.06060624e-001
      5.62500000e-001 4.70588237e-001 6.84931502e-002 4.24999982e-001
      3.15789461e-001 3.54838699e-001 3.59999985e-001 3.43750000e-001
      2.30769217e-001 4.34782617e-002 2.67857134e-001 3.42857152e-001
      7.82608688e-002 3.31210196e-001 3.16153020e-001</_>
    <_>
      2.11756364e-001 1.37404591e-001 3.52941185e-001 3.01369876e-001
      2.96296299e-001 5.15151501e-001 6.14035130e-001 5.41666627e-001
      4.70588237e-001 4.81481463e-001 4.44444418e-001 4.38848913e-001
      7.59259284e-001 4.63768125e-001 4.56521749e-001 1.17647059e-001
      4.58333313e-001 5.60606062e-001 4.33962286e-001 2.89855063e-001
      2.43243232e-001 1.30434781e-001 2.12121218e-001 4.28571433e-001
      3.38461548e-001 2.35294133e-001 1.60714298e-001 2.60869563e-001
      1.58508152e-001 1.17647059e-001 2.00000003e-001 3.19999993e-001
      3.47826064e-001 1.24999993e-001 3.62962961e-001 2.76785731e-001
      2.38993704e-001 2.15827331e-001 1.72413781e-001 3.73134315e-001
      3.00000012e-001 1.84466019e-001 1.89024374e-001 3.40824008e-001
      4.43736732e-001 4.57943946e-001 2.43902430e-002 2.60869563e-001
      2.70833343e-001 3.67346942e-001 2.19999999e-001 2.10937500e-001
      2.77777780e-002 1.21405743e-001 5.96153855e-001 5.29411733e-001
      3.75000000e-001 2.12121218e-001 2.00000003e-001 3.39285731e-001
      1.91489354e-001 3.06818187e-001 2.45762721e-001 9.85915512e-002
      1.57303363e-001 1.90476179e-001 5.86956501e-001 2.39999995e-001
      1.66666672e-001 1.03448279e-001 2.27272719e-001 1.66666672e-001
      1.33333340e-001 3.66492122e-001 3.95017803e-001 2.04819277e-001
      4.73684222e-001 2.00000003e-001 3.51351351e-001 2.57861644e-001
      1.83673456e-001 2.31884062e-001 2.66666681e-001 1.77083313e-001
      1.61290318e-001 1.69491515e-001 1.67338699e-001 6.07142866e-001
      4.42622960e-001 3.25581402e-001 3.22580636e-001 3.51351351e-001
      1.53846160e-001 3.33333343e-001 2.18181834e-001 2.17391297e-001
      1.27272725e-001 1.65000007e-001 1.35964900e-001 8.08823481e-002
      1.23711340e-001 3.85964930e-001 1.99999988e-001 1.81818187e-001
      1.66666672e-001 3.93939376e-001 4.68750000e-001 4.81481493e-001
      3.81818175e-001 1.80327863e-001 4.27807495e-002 9.82142836e-002
      1.57894745e-001 1.64874569e-001 3.33333343e-001 2.88461536e-001
      2.63157904e-001 2.66666681e-001 3.68421048e-001 4.03846145e-001
      1.46341458e-001 2.05882356e-001 2.70588249e-001 2.95081943e-001
      5.37313402e-001 5.66666663e-001 1.28676459e-001 8.16993490e-002
      1.23028390e-001 3.33333313e-001 4.79452044e-001 6.66666687e-001
      4.41176444e-001 6.55172408e-001 3.92857134e-001 1.66666672e-001
      3.74999970e-001 4.37500000e-001 3.80952358e-001 5.25773168e-001
      4.07999992e-001 2.93604672e-001 1.84848472e-001 2.88288265e-001
      3.72549027e-001 4.37499970e-001 2.90322572e-001 5.27777791e-001
      3.02325577e-001 5.35714269e-001 3.84615421e-001 3.48837227e-001
      4.84848499e-001 3.27102810e-001 4.01869148e-001 3.12925160e-001
      4.99999970e-001 5.24999976e-001 4.13793117e-001 4.48275834e-001
      2.50000000e-001 3.88888866e-001 4.92753625e-001 4.23076928e-001
      1.89189181e-001 1.26213595e-001 1.87192112e-001 3.91727507e-001
      6.83168352e-001 6.21212065e-001 4.41176474e-001 3.70370388e-001
      5.18518507e-001 3.66666675e-001 3.18181813e-001 1.73333332e-001
      5.73770478e-002 3.74331549e-002 1.75298810e-001 4.29687530e-001
      6.87500000e-001 6.11111104e-001 5.51724136e-001 2.14285716e-001
      3.09523821e-001 2.27272734e-001 2.01342274e-002 2.30040587e-002
      2.80172434e-002 3.20754737e-001 4.37499970e-001 3.47826093e-001
      2.41379306e-001 9.80392247e-002 1.28205135e-001 1.57894731e-001
      1.24463521e-001 5.80762289e-002 1.39534891e-001 4.32432443e-001
      3.75000000e-001 4.00000036e-001 3.00000012e-001 1.25000000e-001
      1.42857134e-001 2.47086227e-001 1.21052638e-001 1.33333325e-001
      3.24324310e-001 3.03030312e-001 5.71428537e-001 2.41379306e-001
      1.42857149e-001 1.71232894e-001 3.16666663e-001 3.33333313e-001
      5.38461506e-001 2.00000003e-001 2.85714269e-001 1.30434781e-001
      7.14285746e-002 4.44444418e-001 4.28571403e-001 5.16129076e-001
      3.88888866e-001 3.19999993e-001 3.74999970e-001 6.66666627e-001
      3.75000000e-001 4.11764711e-001 2.32876703e-001 3.49999994e-001
      3.42105240e-001 2.58064508e-001 5.99999964e-001 3.12500000e-001
      1.79487169e-001 4.34782617e-002 2.14285716e-001 8.57142881e-002
      2.17391312e-001 4.36305732e-001 5.44633329e-001</_>
    <_>
      2.37960353e-001 1.79389313e-001 1.76470593e-001 1.91780835e-001
      1.85185194e-001 2.12121204e-001 1.57894745e-001 2.50000000e-001
      2.05882356e-001 2.59259254e-001 8.88888910e-002 2.51798570e-001
      1.66666657e-001 1.01449274e-001 2.39130422e-001 7.18954206e-002
      3.33333313e-001 1.51515156e-001 1.13207549e-001 1.59420297e-001
      1.08108111e-001 6.76328465e-002 6.06060587e-002 7.14285672e-002
      6.15384653e-002 1.02941178e-001 6.25000000e-002 2.02898562e-001
      1.28205135e-001 2.05882356e-001 2.85714298e-001 3.19999993e-001
      1.95652172e-001 8.33333358e-002 5.92592619e-002 6.54761866e-002
      1.63522005e-001 4.10071939e-001 1.72413781e-001 1.04477614e-001
      1.50000006e-001 8.73786360e-002 1.82926841e-002 1.04868919e-001
      4.88322750e-002 9.81308445e-002 1.70731694e-001 4.34782624e-001
      2.91666687e-001 2.44897947e-001 2.80000001e-001 8.59375000e-002
      1.46825403e-001 1.53354630e-001 1.15384616e-001 1.32352933e-001
      6.66666627e-001 2.72727281e-001 5.09090960e-001 4.82142866e-001
      2.44680852e-001 2.50000000e-001 1.86440676e-001 1.26760557e-001
      2.35955060e-001 0. 1.52173907e-001 5.19999981e-001 9.58333313e-001
      5.51724195e-001 6.81818187e-001 3.33333343e-001 2.06666678e-001
      2.61780083e-001 1.99288264e-001 1.20481938e-001 1.92982450e-001
      1.71428576e-001 2.43243247e-001 5.53459167e-001 7.14285731e-001
      6.37681186e-001 8.00000012e-001 6.04166627e-001 3.38709652e-001
      1.32203400e-001 1.41129017e-001 3.49999994e-001 1.80327863e-001
      1.86046511e-001 3.54838729e-001 2.16216207e-001 4.23076928e-001
      6.31578982e-001 9.27272797e-001 8.40579629e-001 9.63636339e-001
      4.45000023e-001 2.67543852e-001 1.25000000e-001 3.60824734e-001
      3.33333343e-001 1.99999988e-001 1.21212117e-001 1.11111112e-001
      1.51515156e-001 3.43750000e-001 7.77777731e-001 7.09090948e-001
      6.88524604e-001 4.97326225e-001 9.64285672e-001 3.66028726e-001
      2.93906808e-001 3.95061731e-001 3.46153855e-001 6.84210479e-001
      2.00000018e-001 1.05263159e-001 1.15384623e-001 1.95121944e-001
      6.17646992e-001 2.94117630e-001 1.96721300e-001 1.49253726e-001
      8.33333358e-002 9.92647111e-002 4.57516387e-002 1.38801262e-001
      2.47863233e-001 1.36986300e-001 1.38888896e-001 2.05882356e-001
      2.06896558e-001 1.78571433e-001 5.55555560e-002 5.00000000e-001
      2.65624970e-001 2.53968269e-001 1.95876271e-001 1.19999997e-001
      6.39534891e-002 1.03030294e-001 9.00900885e-002 1.76470593e-001
      1.56250000e-001 2.90322572e-001 2.22222224e-001 9.30232629e-002
      2.50000000e-001 2.30769247e-001 5.11627913e-001 2.87878782e-001
      3.08411211e-001 1.44859821e-001 9.52380970e-002 7.01754391e-002
      5.00000007e-002 3.44827585e-002 1.72413796e-001 7.14285672e-002
      1.66666672e-001 1.30434796e-001 7.30769277e-001 4.79729712e-001
      3.64077687e-001 2.11822674e-001 2.67639905e-001 1.58415839e-001
      1.06060602e-001 2.05882356e-001 1.11111112e-001 7.40740746e-002
      1.33333340e-001 3.63636374e-001 7.46666670e-001 3.44262302e-001
      2.62032062e-001 2.35059768e-001 2.50000000e-001 1.87500000e-001
      1.94444448e-001 6.89655170e-002 1.42857134e-001 1.19047627e-001
      4.54545468e-002 5.70469797e-001 2.44925559e-001 2.09051728e-001
      4.33962256e-001 4.58333313e-001 1.52173921e-001 1.37931034e-001
      7.84313753e-002 1.53846160e-001 1.05263159e-001 6.52360499e-001
      3.79310340e-001 3.72093022e-001 4.86486495e-001 3.75000000e-001
      3.00000012e-001 1.33333340e-001 6.25000000e-002 5.49450554e-002
      4.12587404e-001 8.52631629e-001 4.53333318e-001 6.48648679e-001
      4.84848469e-001 3.92857134e-001 1.03448279e-001 1.14285715e-001
      3.28767121e-001 1. 6.94444418e-001 7.69230723e-001 2.85714298e-001
      2.85714269e-001 4.34782617e-002 5.23809552e-001 6.66666627e-001
      6.42857134e-001 6.45161271e-001 3.88888866e-001 2.00000003e-001
      5.31250000e-001 3.03030312e-001 3.43750000e-001 5.00000000e-001
      2.46575341e-001 1.49999991e-001 2.89473683e-001 4.19354826e-001
      5.99999964e-001 3.12500000e-001 1.79487169e-001 2.60869563e-001
      1.78571433e-001 1.71428576e-001 7.82608688e-002 2.13375807e-001
      4.98405904e-001</_>
    <_>
      2.56373912e-001 1.37404591e-001 2.64705867e-001 3.01369876e-001
      5.55555522e-001 3.63636345e-001 2.80701727e-001 1. 5.88235319e-001
      6.29629672e-001 6.00000024e-001 2.80575544e-001 7.77777851e-001
      3.33333343e-001 7.17391253e-001 1.76470578e-001 7.50000000e-001
      7.27272749e-001 4.33962286e-001 2.17391297e-001 2.16216221e-001
      1.40096620e-001 3.93939376e-001 5.35714269e-001 2.61538476e-001
      1.91176474e-001 7.14285672e-002 1.44927531e-001 1.02564104e-001
      2.64705867e-001 3.42857152e-001 7.19999969e-001 2.17391312e-001
      1.38888896e-001 2.51851857e-001 1.27976194e-001 1.97064996e-001
      1.79856122e-001 2.58620709e-001 1.49253726e-001 2.24999994e-001
      1.26213580e-001 6.70731738e-002 1.19850196e-001 1.65605083e-001
      2.47663543e-001 2.43902430e-001 1.59420297e-001 2.70833343e-001
      1.83673456e-001 2.59999990e-001 4.68750037e-002 7.53968209e-002
      6.70926496e-002 2.11538449e-001 2.05882341e-001 2.50000000e-001
      3.03030312e-001 3.27272743e-001 2.50000000e-001 1.38297871e-001
      2.04545468e-001 1.69491529e-001 1.12676062e-001 1.34831458e-001
      2.85714269e-001 2.60869563e-001 6.39999986e-001 2.91666657e-001
      5.51724195e-001 4.54545438e-001 2.96296299e-001 1.46666676e-001
      1.62303656e-001 1.60142347e-001 2.40963846e-001 2.80701756e-001
      2.00000003e-001 2.97297299e-001 1.69811323e-001 5.10204077e-001
      4.78260875e-001 4.66666669e-001 7.29166716e-002 8.06451514e-002
      6.44067824e-002 8.46774206e-002 2.71428585e-001 3.77049208e-001
      3.02325577e-001 4.19354856e-001 2.97297299e-001 4.61538494e-001
      4.91228074e-001 3.81818175e-001 2.31884062e-001 2.72727281e-001
      7.00000003e-002 7.01754391e-002 5.88235259e-002 2.06185561e-002
      2.45614052e-001 3.49999994e-001 3.63636374e-001 2.50000000e-001
      5.75757563e-001 2.50000000e-001 6.29629612e-001 2.90909082e-001
      3.27868849e-001 1.12299472e-001 1.96428567e-001 9.09090936e-002
      7.88530484e-002 1.72839507e-001 2.50000000e-001 1.84210524e-001
      3.66666675e-001 2.10526317e-001 4.23076928e-001 2.92682916e-001
      4.11764711e-001 1.76470593e-001 2.13114753e-001 3.28358203e-001
      3.83333325e-001 9.92647111e-002 1.20915040e-001 1.13564663e-001
      3.50427359e-001 3.15068483e-001 4.16666657e-001 3.23529392e-001
      4.13793117e-001 6.07142866e-001 3.33333343e-001 4.68750000e-001
      1.87500000e-001 2.69841284e-001 1.85566992e-001 2.71999985e-001
      1.22093022e-001 9.39393938e-002 3.78378361e-001 4.70588267e-001
      5.00000000e-001 4.19354826e-001 5.27777791e-001 5.34883738e-001
      5.00000000e-001 5.38461566e-001 2.09302321e-001 2.42424250e-001
      3.36448610e-001 2.24299058e-001 1.76870733e-001 2.98245609e-001
      4.74999994e-001 5.17241359e-001 4.13793117e-001 8.21428537e-001
      4.72222209e-001 6.23188436e-001 3.26923072e-001 1.01351351e-001
      1.45631075e-001 8.62068981e-002 1.38686135e-001 2.62376219e-001
      3.93939376e-001 4.11764711e-001 6.66666687e-001 6.29629672e-001
      6.66666687e-001 8.63636374e-001 2.39999980e-001 1.55737713e-001
      1.06951870e-001 1.63346618e-001 2.26562500e-001 4.06250000e-001
      3.33333343e-001 3.44827592e-001 5.71428537e-001 4.28571433e-001
      4.54545468e-001 1.94630891e-001 7.30717182e-002 1.35775864e-001
      1.79245293e-001 3.54166657e-001 3.47826093e-001 4.48275834e-001
      2.74509817e-001 5.12820542e-001 3.94736826e-001 2.31759652e-001
      1.66969150e-001 2.71317840e-001 5.13513505e-001 4.16666687e-001
      4.33333337e-001 7.33333349e-001 4.58333313e-001 3.07692289e-001
      1.39860138e-001 3.00000012e-001 2.93333352e-001 2.16216207e-001
      2.42424235e-001 6.07142866e-001 5.51724136e-001 4.57142860e-001
      1.98630154e-001 3.33333343e-001 3.33333313e-001 4.23076928e-001
      5.71428597e-001 6.42857134e-001 5.21739125e-001 2.38095254e-001
      2.49999985e-001 2.50000000e-001 5.48387110e-001 7.22222209e-001
      5.19999981e-001 4.06250000e-001 2.42424235e-001 4.06250000e-001
      3.52941185e-001 6.57534242e-001 2.50000000e-001 4.73684192e-001
      5.48387110e-001 7.19999969e-001 5.93750000e-001 3.07692319e-001
      2.60869563e-001 2.50000000e-001 3.42857152e-001 1.82608694e-001 1.
      8.69819283e-001</_>
    <_>
      3.92351270e-001 1.29770994e-001 1.47058830e-001 2.05479473e-001
      1.11111112e-001 1.51515156e-001 1.40350863e-001 3.33333313e-001
      2.35294119e-001 1.11111112e-001 1.11111112e-001 2.01438844e-001
      2.40740746e-001 1.88405797e-001 2.60869533e-001 1.63398683e-001
      1.66666657e-001 3.63636345e-001 1.50943398e-001 2.31884062e-001
      2.02702701e-001 1.98067620e-001 2.12121218e-001 2.50000000e-001
      2.30769217e-001 1.61764696e-001 1.87500000e-001 2.10144922e-001
      9.09090936e-002 3.23529392e-001 2.00000003e-001 1.59999996e-001
      1.52173907e-001 1.80555552e-001 2.37037033e-001 1.48809522e-001
      1.27882600e-001 5.89928091e-001 4.31034476e-001 1.94029853e-001
      4.75000024e-001 2.33009711e-001 1.40243903e-001 2.13483140e-001
      2.88747340e-001 1.68224290e-001 1.21951215e-001 3.47826093e-001
      3.95833343e-001 3.26530606e-001 3.79999995e-001 2.42187485e-001
      7.93650746e-002 1.21405743e-001 2.21153840e-001 1.91176459e-001
      8.74999940e-001 1.51515156e-001 5.09090960e-001 6.25000060e-001
      2.55319118e-001 3.18181813e-001 1.99152544e-001 1.40845075e-001
      1.23595499e-001 1.66666672e-001 2.60869563e-001 7.99999982e-002
      4.16666627e-001 6.89655244e-002 5.45454562e-001 2.96296299e-001
      2.06666678e-001 2.09424078e-001 2.38434181e-001 3.13253015e-001
      2.10526317e-001 2.28571430e-001 3.78378361e-001 7.16981113e-001
      7.55102038e-001 6.95652127e-001 7.55555511e-001 5.72916687e-001
      3.54838699e-001 1.08474568e-001 1.22983865e-001 4.49999988e-001
      3.93442601e-001 2.32558146e-001 2.25806445e-001 2.97297299e-001
      2.30769247e-001 5.08771956e-001 5.81818223e-001 8.84057939e-001
      4.90909070e-001 3.14999998e-001 1.62280709e-001 1.43382341e-001
      1.44329906e-001 4.73684222e-001 2.50000000e-001 5.15151501e-001
      2.50000000e-001 2.42424235e-001 5.00000000e-001 4.81481493e-001
      6.72727287e-001 6.22950792e-001 3.79679143e-001 4.55357134e-001
      3.34928244e-001 2.90322602e-001 5.18518567e-001 1.92307696e-001
      3.68421048e-001 3.66666675e-001 3.42105240e-001 2.30769247e-001
      9.75609720e-002 2.35294119e-001 9.41176489e-002 2.29508206e-001
      1.49253726e-001 2.50000000e-001 1.43382356e-001 9.47712511e-002
      1.23028390e-001 1.62393168e-001 2.32876718e-001 5.00000000e-001
      3.82352918e-001 5.86206913e-001 2.14285716e-001 1.66666672e-001
      3.74999970e-001 3.90625000e-001 1.58730149e-001 1.64948449e-001
      1.11999996e-001 1.65697679e-001 6.36363626e-002 2.79279292e-001
      1.96078449e-001 3.43750000e-001 2.90322572e-001 1.66666672e-001
      1.86046511e-001 7.14285672e-002 3.07692319e-001 2.79069781e-001
      2.87878782e-001 1.68224290e-001 1.82242990e-001 1.81405887e-001
      2.98245609e-001 1.74999997e-001 2.75862068e-001 2.41379306e-001
      2.14285716e-001 8.33333358e-002 1.59420297e-001 5.76923072e-001
      4.05405402e-001 1.35922328e-001 1.18226610e-001 2.74939179e-001
      2.57425725e-001 1.81818172e-001 2.05882356e-001 2.59259254e-001
      2.22222224e-001 1.66666672e-001 1.36363640e-001 4.13333327e-001
      3.81147534e-001 1.73796773e-001 2.43027896e-001 1.87500015e-001
      2.03124985e-001 1.38888896e-001 1.37931034e-001 1.07142858e-001
      1.66666672e-001 4.54545468e-002 4.63087261e-001 2.08389699e-001
      2.50000000e-001 2.16981143e-001 1.87500000e-001 2.60869563e-001
      1.72413796e-001 1.17647067e-001 1.02564096e-001 5.26315793e-002
      4.24892694e-001 2.21415609e-001 4.72868234e-001 7.02702701e-001
      4.58333313e-001 2.66666681e-001 2.66666681e-001 1.87500000e-001
      1.09890111e-001 4.82517481e-001 7.10526347e-001 4.93333340e-001
      4.05405402e-001 2.42424235e-001 3.92857134e-001 2.75862068e-001
      2.00000003e-001 4.65753436e-001 5.83333373e-001 5.83333313e-001
      3.07692319e-001 2.28571430e-001 2.85714269e-001 4.34782617e-002
      3.57142866e-001 4.16666687e-001 2.14285716e-001 1.29032269e-001
      1.94444448e-001 3.99999991e-002 2.18750000e-001 4.24242437e-001
      3.12500000e-001 2.94117659e-001 9.58904102e-002 3.49999994e-001
      2.63157904e-001 1.29032254e-001 2.80000001e-001 1.25000000e-001
      1.28205135e-001 1.30434781e-001 5.35714291e-002 1.42857149e-001
      1.13043480e-001 2.22929940e-001 4.00637597e-001</_>
    <_>
